{"Free_50": {"trees": [{"nodeid": 0, "depth": 0, "split": "f0", "split_condition": 67.5, "yes": 1, "no": 2, "missing": 2, "children": [{"nodeid": 1, "depth": 1, "split": "f0", "split_condition": 66.5999985, "yes": 3, "no": 4, "missing": 4, "children": [{"nodeid": 3, "leaf": 0.036875058}, {"nodeid": 4, "leaf": 0.00925006904}]}, {"nodeid": 2, "leaf": -0.0453332923}]}, {"nodeid": 0, "depth": 0, "split": "f0", "split_condition": 67.5, "yes": 1, "no": 2, "missing": 2, "children": [{"nodeid": 1, "leaf": 0.0249709133}, {"nodeid": 2, "leaf": -0.0423110351}]}, {"nodeid": 0, "depth": 0, "split": "f0", "split_condition": 67.5, "yes": 1, "no": 2, "missing": 2, "children": [{"nodeid": 1, "depth": 1, "split": "f0", "split_condition": 65.9499969, "yes": 3, "no": 4, "missing": 4, "children": [{"nodeid": 3, "leaf": -0.0033422471}, {"nodeid": 4, "depth": 2, "split": "f0", "split_condition": 66.5999985, "yes": 7, "no": 8, "missing": 8, "children": [{"nodeid": 7, "leaf": 0.0308769848}, {"nodeid": 8, "leaf": 0.00753898639}]}]}, {"nodeid": 2, "depth": 1, "split": "f1", "split_condition": 4800, "yes": 5, "no": 6, "missing": 6, "children": [{"nodeid": 5, "leaf": -0.0103677753}, {"nodeid": 6, "leaf": -0.0458677299}]}]}, {"nodeid": 0, "depth": 0, "split": "f0", "split_condition": 66.5999985, "yes": 1, "no": 2, "missing": 2, "children": [{"nodeid": 1, "depth": 1, "split": "f0", "split_condition": 65.9499969, "yes": 3, "no": 4, "missing": 4, "children": [{"nodeid": 3, "depth": 2, "split": "f1", "split_condition": 77.5, "yes": 7, "no": 8, "missing": 8, "children": [{"nodeid": 7, "leaf": 0.018324852}, {"nodeid": 8, "leaf": -0.00317516341}]}, {"nodeid": 4, "leaf": 0.0288185757}]}, {"nodeid": 2, "depth": 1, "split": "f1", "split_condition": 4800, "yes": 5, "no": 6, "missing": 6, "children": [{"nodeid": 5, "leaf": -0.0151324589}, {"nodeid": 6, "leaf": -0.0435743332}]}]}, {"nodeid": 0, "depth": 0, "split": "f0", "split_condition": 66.5999985, "yes": 1, "no": 2, "missing": 2, "children": [{"nodeid": 1, "depth": 1, "split": "f0", "split_condition": 65.9499969, "yes": 3, "no": 4, "missing": 4, "children": [{"nodeid": 3, "depth": 2, "split": "f1", "split_condition": 77.5, "yes": 5, "no": 6, "missing": 6, "children": [{"nodeid": 5, "leaf": 0.0174085628}, {"nodeid": 6, "leaf": -0.00301637664}]}, {"nodeid": 4, "leaf": 0.026897369}]}, {"nodeid": 2, "leaf": -0.0356588364}]}, {"nodeid": 0, "depth": 0, "split": "f0", "split_condition": 67.5, "yes": 1, "no": 2, "missing": 2, "children": [{"nodeid": 1, "depth": 1, "split": "f0", "split_condition": 65.9499969, "yes": 3, "no": 4, "missing": 4, "children": [{"nodeid": 3, "leaf": -0.00286560063}, {"nodeid": 4, "leaf": 0.0236789715}]}, {"nodeid": 2, "depth": 1, "split": "f1", "split_condition": 4800, "yes": 5, "no": 6, "missing": 6, "children": [{"nodeid": 5, "leaf": -0.011746279}, {"nodeid": 6, "leaf": -0.0396125801}]}]}, {"nodeid": 0, "depth": 0, "split": "f0", "split_condition": 67.5, "yes": 1, "no": 2, "missing": 2, "children": [{"nodeid": 1, "leaf": 0.0164483264}, {"nodeid": 2, "depth": 1, "split": "f1", "split_condition": 4800, "yes": 3, "no": 4, "missing": 4, "children": [{"nodeid": 3, "leaf": -0.010963249}, {"nodeid": 4, "leaf": -0.0376319885}]}]}, {"nodeid": 0, "depth": 0, "split": "f0", "split_condition": 66.5999985, "yes": 1, "no": 2, "missing": 2, "children": [{"nodeid": 1, "leaf": 0.0224537533}, {"nodeid": 2, "depth": 1, "split": "f1", "split_condition": 4800, "yes": 3, "no": 4, "missing": 4, "children": [{"nodeid": 3, "leaf": -0.00617427845}, {"nodeid": 4, "leaf": -0.0357503891}]}]}, {"nodeid": 0, "depth": 0, "split": "f0", "split_condition": 67.5, "yes": 1, "no": 2, "missing": 2, "children": [{"nodeid": 1, "depth": 1, "split": "f0", "split_condition": 65.9499969, "yes": 3, "no": 4, "missing": 4, "children": [{"nodeid": 3, "leaf": -0.00466747303}, {"nodeid": 4, "leaf": 0.019701004}]}, {"nodeid": 2, "depth": 1, "split": "f1", "split_condition": 4800, "yes": 5, "no": 6, "missing": 6, "children": [{"nodeid": 5, "leaf": -0.00586557388}, {"nodeid": 6, "leaf": -0.0339628235}]}]}, {"nodeid": 0, "depth": 0, "split": "f0", "split_condition": 66.5999985, "yes": 1, "no": 2, "missing": 2, "children": [{"nodeid": 1, "leaf": 0.0196186714}, {"nodeid": 2, "depth": 1, "split": "f1", "split_condition": 4800, "yes": 3, "no": 4, "missing": 4, "children": [{"nodeid": 3, "leaf": -0.00942974072}, {"nodeid": 4, "leaf": -0.0322647095}]}]}, {"nodeid": 0, "depth": 0, "split": "f0", "split_condition": 67.5, "yes": 1, "no": 2, "missing": 2, "children": [{"nodeid": 1, "depth": 1, "split": "f0", "split_condition": 65.9499969, "yes": 3, "no": 4, "missing": 4, "children": [{"nodeid": 3, "leaf": -0.00541505823}, {"nodeid": 4, "leaf": 0.0174782276}]}, {"nodeid": 2, "depth": 1, "split": "f1", "split_condition": 4800, "yes": 5, "no": 6, "missing": 6, "children": [{"nodeid": 5, "leaf": -0.00880107936}, {"nodeid": 6, "leaf": -0.0306514744}]}]}, {"nodeid": 0, "depth": 0, "split": "f0", "split_condition": 67.5, "yes": 1, "no": 2, "missing": 2, "children": [{"nodeid": 1, "depth": 1, "split": "f1", "split_condition": 1255.59998, "yes": 3, "no": 4, "missing": 4, "children": [{"nodeid": 3, "leaf": 0.0163674839}, {"nodeid": 4, "depth": 2, "split": "f0", "split_condition": 65.9499969, "yes": 7, "no": 8, "missing": 8, "children": [{"nodeid": 7, "leaf": -0.00514431018}, {"nodeid": 8, "leaf": 0.0138590811}]}]}, {"nodeid": 2, "depth": 1, "split": "f1", "split_condition": 4800, "yes": 5, "no": 6, "missing": 6, "children": [{"nodeid": 5, "leaf": -0.00821437873}, {"nodeid": 6, "leaf": -0.0291189197}]}]}, {"nodeid": 0, "depth": 0, "split": "f0", "split_condition": 67.5, "yes": 1, "no": 2, "missing": 2, "children": [{"nodeid": 1, "depth": 1, "split": "f1", "split_condition": 1255.59998, "yes": 3, "no": 4, "missing": 4, "children": [{"nodeid": 3, "leaf": 0.0151399616}, {"nodeid": 4, "depth": 2, "split": "f0", "split_condition": 65.9499969, "yes": 7, "no": 8, "missing": 8, "children": [{"nodeid": 7, "leaf": -0.00488710403}, {"nodeid": 8, "leaf": 0.0131661417}]}]}, {"nodeid": 2, "depth": 1, "split": "f1", "split_condition": 4800, "yes": 5, "no": 6, "missing": 6, "children": [{"nodeid": 5, "leaf": -0.00766671542}, {"nodeid": 6, "leaf": -0.0276629459}]}]}, {"nodeid": 0, "depth": 0, "split": "f0", "split_condition": 67.5, "yes": 1, "no": 2, "missing": 2, "children": [{"nodeid": 1, "leaf": 0.0151164532}, {"nodeid": 2, "depth": 1, "split": "f1", "split_condition": 4800, "yes": 3, "no": 4, "missing": 4, "children": [{"nodeid": 3, "leaf": -0.00715554599}, {"nodeid": 4, "leaf": -0.0262798313}]}]}, {"nodeid": 0, "depth": 0, "split": "f0", "split_condition": 67.5, "yes": 1, "no": 2, "missing": 2, "children": [{"nodeid": 1, "depth": 1, "split": "f0", "split_condition": 65.9499969, "yes": 3, "no": 4, "missing": 4, "children": [{"nodeid": 3, "leaf": -0.00539855985}, {"nodeid": 4, "leaf": 0.0127826212}]}, {"nodeid": 2, "depth": 1, "split": "f1", "split_condition": 4800, "yes": 5, "no": 6, "missing": 6, "children": [{"nodeid": 5, "leaf": -0.00650882721}, {"nodeid": 6, "leaf": -0.0249658581}]}]}, {"nodeid": 0, "depth": 0, "split": "f0", "split_condition": 67.5, "yes": 1, "no": 2, "missing": 2, "children": [{"nodeid": 1, "depth": 1, "split": "f0", "split_condition": 66.5999985, "yes": 3, "no": 4, "missing": 4, "children": [{"nodeid": 3, "leaf": 0.0160999298}, {"nodeid": 4, "leaf": 0.0036460876}]}, {"nodeid": 2, "depth": 1, "split": "f1", "split_condition": 4800, "yes": 5, "no": 6, "missing": 6, "children": [{"nodeid": 5, "leaf": -0.00624446897}, {"nodeid": 6, "leaf": -0.0237175953}]}]}, {"nodeid": 0, "depth": 0, "split": "f0", "split_condition": 67.5, "yes": 1, "no": 2, "missing": 2, "children": [{"nodeid": 1, "depth": 1, "split": "f0", "split_condition": 66.5999985, "yes": 3, "no": 4, "missing": 4, "children": [{"nodeid": 3, "leaf": 0.014467366}, {"nodeid": 4, "leaf": 0.00346374512}]}, {"nodeid": 2, "depth": 1, "split": "f1", "split_condition": 4800, "yes": 5, "no": 6, "missing": 6, "children": [{"nodeid": 5, "leaf": -0.00582815846}, {"nodeid": 6, "leaf": -0.0225317013}]}]}, {"nodeid": 0, "depth": 0, "split": "f0", "split_condition": 67.5, "yes": 1, "no": 2, "missing": 2, "children": [{"nodeid": 1, "depth": 1, "split": "f1", "split_condition": 77.5, "yes": 3, "no": 4, "missing": 4, "children": [{"nodeid": 3, "leaf": 0.0120201744}, {"nodeid": 4, "depth": 2, "split": "f0", "split_condition": 65.9499969, "yes": 5, "no": 6, "missing": 6, "children": [{"nodeid": 5, "leaf": -0.00665702811}, {"nodeid": 6, "leaf": 0.00858338736}]}]}, {"nodeid": 2, "leaf": -0.021405125}]}, {"nodeid": 0, "depth": 0, "split": "f0", "split_condition": 67.5, "yes": 1, "no": 2, "missing": 2, "children": [{"nodeid": 1, "depth": 1, "split": "f0", "split_condition": 66.5999985, "yes": 3, "no": 4, "missing": 4, "children": [{"nodeid": 3, "leaf": 0.0129918102}, {"nodeid": 4, "leaf": 0.00286140456}]}, {"nodeid": 2, "depth": 1, "split": "f1", "split_condition": 4800, "yes": 5, "no": 6, "missing": 6, "children": [{"nodeid": 5, "leaf": -0.00401261635}, {"nodeid": 6, "leaf": -0.0203349125}]}]}, {"nodeid": 0, "depth": 0, "split": "f1", "split_condition": 4800, "yes": 1, "no": 2, "missing": 2, "children": [{"nodeid": 1, "depth": 1, "split": "f1", "split_condition": 1255.59998, "yes": 3, "no": 4, "missing": 4, "children": [{"nodeid": 3, "leaf": 0.00809173565}, {"nodeid": 4, "depth": 2, "split": "f3", "split_condition": 3127.5, "yes": 5, "no": 6, "missing": 6, "children": [{"nodeid": 5, "leaf": 0.00850582123}, {"nodeid": 6, "leaf": -0.006295681}]}]}, {"nodeid": 2, "leaf": -0.0193181988}]}, {"nodeid": 0, "depth": 0, "split": "f0", "split_condition": 67.5, "yes": 1, "no": 2, "missing": 2, "children": [{"nodeid": 1, "depth": 1, "split": "f1", "split_condition": 77.5, "yes": 3, "no": 4, "missing": 4, "children": [{"nodeid": 3, "leaf": 0.00981337205}, {"nodeid": 4, "depth": 2, "split": "f0", "split_condition": 65.9499969, "yes": 7, "no": 8, "missing": 8, "children": [{"nodeid": 7, "leaf": -0.00665893545}, {"nodeid": 8, "leaf": 0.00692952517}]}]}, {"nodeid": 2, "depth": 1, "split": "f1", "split_condition": 4800, "yes": 5, "no": 6, "missing": 6, "children": [{"nodeid": 5, "leaf": -0.00332533545}, {"nodeid": 6, "leaf": -0.0183523186}]}]}, {"nodeid": 0, "depth": 0, "split": "f1", "split_condition": 4800, "yes": 1, "no": 2, "missing": 2, "children": [{"nodeid": 1, "depth": 1, "split": "f0", "split_condition": 65.9499969, "yes": 3, "no": 4, "missing": 4, "children": [{"nodeid": 3, "leaf": -0.00632600812}, {"nodeid": 4, "depth": 2, "split": "f0", "split_condition": 67.5, "yes": 5, "no": 6, "missing": 6, "children": [{"nodeid": 5, "leaf": 0.00745801954}, {"nodeid": 6, "leaf": -0.00310370116}]}]}, {"nodeid": 2, "leaf": -0.017434692}]}, {"nodeid": 0, "depth": 0, "split": "f0", "split_condition": 67.5, "yes": 1, "no": 2, "missing": 2, "children": [{"nodeid": 1, "depth": 1, "split": "f1", "split_condition": 77.5, "yes": 3, "no": 4, "missing": 4, "children": [{"nodeid": 3, "leaf": 0.0091214506}, {"nodeid": 4, "depth": 2, "split": "f0", "split_condition": 65.9499969, "yes": 5, "no": 6, "missing": 6, "children": [{"nodeid": 5, "leaf": -0.00600967417}, {"nodeid": 6, "leaf": 0.0059703826}]}]}, {"nodeid": 2, "leaf": -0.0165629387}]}, {"nodeid": 0, "depth": 0, "split": "f0", "split_condition": 67.5, "yes": 1, "no": 2, "missing": 2, "children": [{"nodeid": 1, "depth": 1, "split": "f1", "split_condition": 77.5, "yes": 3, "no": 4, "missing": 4, "children": [{"nodeid": 3, "leaf": 0.00851338729}, {"nodeid": 4, "depth": 2, "split": "f0", "split_condition": 65.9499969, "yes": 5, "no": 6, "missing": 6, "children": [{"nodeid": 5, "leaf": -0.0057091713}, {"nodeid": 6, "leaf": 0.00557238283}]}]}, {"nodeid": 2, "leaf": -0.0157347675}]}, {"nodeid": 0, "depth": 0, "split": "f1", "split_condition": 4800, "yes": 1, "no": 2, "missing": 2, "children": [{"nodeid": 1, "depth": 1, "split": "f0", "split_condition": 66.5999985, "yes": 3, "no": 4, "missing": 4, "children": [{"nodeid": 3, "leaf": 0.00716272974}, {"nodeid": 4, "depth": 2, "split": "f0", "split_condition": 67.5, "yes": 5, "no": 6, "missing": 6, "children": [{"nodeid": 5, "leaf": 0.00101728446}, {"nodeid": 6, "leaf": -0.000743548095}]}]}, {"nodeid": 2, "leaf": -0.0149479872}]}, {"nodeid": 0, "depth": 0, "split": "f1", "split_condition": 4800, "yes": 1, "no": 2, "missing": 2, "children": [{"nodeid": 1, "depth": 1, "split": "f1", "split_condition": 77.5, "yes": 3, "no": 4, "missing": 4, "children": [{"nodeid": 3, "leaf": 0.00746841449}, {"nodeid": 4, "depth": 2, "split": "f0", "split_condition": 65.9499969, "yes": 5, "no": 6, "missing": 6, "children": [{"nodeid": 5, "leaf": -0.00578184146}, {"nodeid": 6, "leaf": 0.00418591499}]}]}, {"nodeid": 2, "leaf": -0.0142005924}]}, {"nodeid": 0, "depth": 0, "split": "f0", "split_condition": 66.5999985, "yes": 1, "no": 2, "missing": 2, "children": [{"nodeid": 1, "depth": 1, "split": "f1", "split_condition": 77.5, "yes": 3, "no": 4, "missing": 4, "children": [{"nodeid": 3, "leaf": 0.00722713489}, {"nodeid": 4, "depth": 2, "split": "f0", "split_condition": 65.9499969, "yes": 5, "no": 6, "missing": 6, "children": [{"nodeid": 5, "leaf": -0.00549278269}, {"nodeid": 6, "leaf": 0.00621652603}]}]}, {"nodeid": 2, "leaf": -0.0134905819}]}, {"nodeid": 0, "depth": 0, "split": "f1", "split_condition": 4800, "yes": 1, "no": 2, "missing": 2, "children": [{"nodeid": 1, "depth": 1, "split": "f0", "split_condition": 66.5999985, "yes": 3, "no": 4, "missing": 4, "children": [{"nodeid": 3, "leaf": 0.00781936664}, {"nodeid": 4, "depth": 2, "split": "f0", "split_condition": 67.5, "yes": 5, "no": 6, "missing": 6, "children": [{"nodeid": 5, "leaf": 0.00143165595}, {"nodeid": 6, "leaf": -7.36872389e-05}]}]}, {"nodeid": 2, "leaf": -0.0128160482}]}, {"nodeid": 0, "depth": 0, "split": "f1", "split_condition": 4800, "yes": 1, "no": 2, "missing": 2, "children": [{"nodeid": 1, "depth": 1, "split": "f1", "split_condition": 77.5, "yes": 3, "no": 4, "missing": 4, "children": [{"nodeid": 3, "leaf": 0.00596733112}, {"nodeid": 4, "depth": 2, "split": "f0", "split_condition": 65.9499969, "yes": 5, "no": 6, "missing": 6, "children": [{"nodeid": 5, "leaf": -0.00560913095}, {"nodeid": 6, "leaf": 0.00270866393}]}]}, {"nodeid": 2, "leaf": -0.0121752741}]}, {"nodeid": 0, "depth": 0, "split": "f1", "split_condition": 4800, "yes": 1, "no": 2, "missing": 2, "children": [{"nodeid": 1, "depth": 1, "split": "f1", "split_condition": 77.5, "yes": 3, "no": 4, "missing": 4, "children": [{"nodeid": 3, "leaf": 0.00556945801}, {"nodeid": 4, "depth": 2, "split": "f0", "split_condition": 65.9499969, "yes": 5, "no": 6, "missing": 6, "children": [{"nodeid": 5, "leaf": -0.00532865524}, {"nodeid": 6, "leaf": 0.00249198917}]}]}, {"nodeid": 2, "leaf": -0.011566544}]}, {"nodeid": 0, "depth": 0, "split": "f0", "split_condition": 67.5, "yes": 1, "no": 2, "missing": 2, "children": [{"nodeid": 1, "depth": 1, "split": "f1", "split_condition": 77.5, "yes": 3, "no": 4, "missing": 4, "children": [{"nodeid": 3, "leaf": 0.00519816112}, {"nodeid": 4, "depth": 2, "split": "f0", "split_condition": 65.9499969, "yes": 7, "no": 8, "missing": 8, "children": [{"nodeid": 7, "leaf": -0.00506219873}, {"nodeid": 8, "leaf": 0.00423641223}]}]}, {"nodeid": 2, "depth": 1, "split": "f1", "split_condition": 4800, "yes": 5, "no": 6, "missing": 6, "children": [{"nodeid": 5, "leaf": -0.00181159971}, {"nodeid": 6, "leaf": -0.0109882355}]}]}, {"nodeid": 0, "depth": 0, "split": "f1", "split_condition": 4800, "yes": 1, "no": 2, "missing": 2, "children": [{"nodeid": 1, "depth": 1, "split": "f1", "split_condition": 77.5, "yes": 3, "no": 4, "missing": 4, "children": [{"nodeid": 3, "leaf": 0.00485165929}, {"nodeid": 4, "depth": 2, "split": "f0", "split_condition": 65.9499969, "yes": 5, "no": 6, "missing": 6, "children": [{"nodeid": 5, "leaf": -0.00480909366}, {"nodeid": 6, "leaf": 0.00360498438}]}]}, {"nodeid": 2, "leaf": -0.0104388241}]}, {"nodeid": 0, "depth": 0, "split": "f1", "split_condition": 4800, "yes": 1, "no": 2, "missing": 2, "children": [{"nodeid": 1, "depth": 1, "split": "f1", "split_condition": 77.5, "yes": 3, "no": 4, "missing": 4, "children": [{"nodeid": 3, "depth": 2, "split": "f0", "split_condition": 65.9499969, "yes": 5, "no": 6, "missing": 6, "children": [{"nodeid": 5, "leaf": 0.00539541245}, {"nodeid": 6, "leaf": 0.00139684684}]}, {"nodeid": 4, "depth": 2, "split": "f3", "split_condition": 3127.5, "yes": 7, "no": 8, "missing": 8, "children": [{"nodeid": 7, "leaf": 0.00486259488}, {"nodeid": 8, "leaf": -0.00186531059}]}]}, {"nodeid": 2, "leaf": -0.00991687831}]}, {"nodeid": 0, "depth": 0, "split": "f1", "split_condition": 4800, "yes": 1, "no": 2, "missing": 2, "children": [{"nodeid": 1, "depth": 1, "split": "f1", "split_condition": 77.5, "yes": 3, "no": 4, "missing": 4, "children": [{"nodeid": 3, "depth": 2, "split": "f0", "split_condition": 65.9499969, "yes": 5, "no": 6, "missing": 6, "children": [{"nodeid": 5, "leaf": 0.00512561807}, {"nodeid": 6, "leaf": 0.00132703781}]}, {"nodeid": 4, "depth": 2, "split": "f0", "split_condition": 65.9499969, "yes": 7, "no": 8, "missing": 8, "children": [{"nodeid": 7, "leaf": -0.00447540311}, {"nodeid": 8, "leaf": 0.00192188274}]}]}, {"nodeid": 2, "leaf": -0.00942106266}]}, {"nodeid": 0, "depth": 0, "split": "f0", "split_condition": 66.5999985, "yes": 1, "no": 2, "missing": 2, "children": [{"nodeid": 1, "depth": 1, "split": "f1", "split_condition": 77.5, "yes": 3, "no": 4, "missing": 4, "children": [{"nodeid": 3, "leaf": 0.0048693656}, {"nodeid": 4, "depth": 2, "split": "f0", "split_condition": 65.9499969, "yes": 5, "no": 6, "missing": 6, "children": [{"nodeid": 5, "leaf": -0.00425167102}, {"nodeid": 6, "leaf": 0.00452337274}]}]}, {"nodeid": 2, "leaf": -0.00895004254}]}, {"nodeid": 0, "depth": 0, "split": "f1", "split_condition": 4800, "yes": 1, "no": 2, "missing": 2, "children": [{"nodeid": 1, "depth": 1, "split": "f0", "split_condition": 66.5999985, "yes": 3, "no": 4, "missing": 4, "children": [{"nodeid": 3, "leaf": 0.0059487028}, {"nodeid": 4, "depth": 2, "split": "f0", "split_condition": 67.5, "yes": 5, "no": 6, "missing": 6, "children": [{"nodeid": 5, "leaf": 0.00115251541}, {"nodeid": 6, "leaf": 5.77926658e-05}]}]}, {"nodeid": 2, "leaf": -0.00850257929}]}, {"nodeid": 0, "depth": 0, "split": "f1", "split_condition": 4800, "yes": 1, "no": 2, "missing": 2, "children": [{"nodeid": 1, "depth": 1, "split": "f0", "split_condition": 66.5999985, "yes": 3, "no": 4, "missing": 4, "children": [{"nodeid": 3, "depth": 2, "split": "f1", "split_condition": 73.3000031, "yes": 5, "no": 6, "missing": 6, "children": [{"nodeid": 5, "leaf": 0.000719738018}, {"nodeid": 6, "leaf": 0.00555210141}]}, {"nodeid": 4, "depth": 2, "split": "f0", "split_condition": 67.5, "yes": 7, "no": 8, "missing": 8, "children": [{"nodeid": 7, "leaf": 0.00109491346}, {"nodeid": 8, "leaf": 5.39779685e-05}]}]}, {"nodeid": 2, "leaf": -0.00807743054}]}, {"nodeid": 0, "depth": 0, "split": "f1", "split_condition": 4800, "yes": 1, "no": 2, "missing": 2, "children": [{"nodeid": 1, "depth": 1, "split": "f1", "split_condition": 73.3000031, "yes": 3, "no": 4, "missing": 4, "children": [{"nodeid": 3, "leaf": 0.000683784485}, {"nodeid": 4, "depth": 2, "split": "f0", "split_condition": 66.5999985, "yes": 5, "no": 6, "missing": 6, "children": [{"nodeid": 5, "leaf": 0.00518194865}, {"nodeid": 6, "leaf": 0.00171864836}]}]}, {"nodeid": 2, "leaf": -0.00767354993}]}, {"nodeid": 0, "depth": 0, "split": "f1", "split_condition": 4800, "yes": 1, "no": 2, "missing": 2, "children": [{"nodeid": 1, "depth": 1, "split": "f1", "split_condition": 1255.59998, "yes": 3, "no": 4, "missing": 4, "children": [{"nodeid": 3, "depth": 2, "split": "f0", "split_condition": 65.9499969, "yes": 5, "no": 6, "missing": 6, "children": [{"nodeid": 5, "leaf": 0.00379171385}, {"nodeid": 6, "leaf": 0.00106919603}]}, {"nodeid": 4, "depth": 2, "split": "f0", "split_condition": 65.9499969, "yes": 7, "no": 8, "missing": 8, "children": [{"nodeid": 7, "leaf": -0.00487327576}, {"nodeid": 8, "leaf": 0.00168337824}]}]}, {"nodeid": 2, "leaf": -0.00728988647}]}, {"nodeid": 0, "depth": 0, "split": "f1", "split_condition": 4800, "yes": 1, "no": 2, "missing": 2, "children": [{"nodeid": 1, "depth": 1, "split": "f3", "split_condition": 4500, "yes": 3, "no": 4, "missing": 4, "children": [{"nodeid": 3, "depth": 2, "split": "f0", "split_condition": 65.9499969, "yes": 5, "no": 6, "missing": 6, "children": [{"nodeid": 5, "leaf": -0.00462961197}, {"nodeid": 6, "leaf": 0.00148406986}]}, {"nodeid": 4, "leaf": 0.00360212335}]}, {"nodeid": 2, "leaf": -0.00692539243}]}, {"nodeid": 0, "depth": 0, "split": "f0", "split_condition": 67.5, "yes": 1, "no": 2, "missing": 2, "children": [{"nodeid": 1, "depth": 1, "split": "f1", "split_condition": 73.3000031, "yes": 3, "no": 4, "missing": 4, "children": [{"nodeid": 3, "leaf": 0.000521850598}, {"nodeid": 4, "depth": 2, "split": "f0", "split_condition": 66.5999985, "yes": 7, "no": 8, "missing": 8, "children": [{"nodeid": 7, "leaf": 0.00448436756}, {"nodeid": 8, "leaf": 0.000720596348}]}]}, {"nodeid": 2, "depth": 1, "split": "f1", "split_condition": 4800, "yes": 5, "no": 6, "missing": 6, "children": [{"nodeid": 5, "leaf": -0.00170650485}, {"nodeid": 6, "leaf": -0.00657911319}]}]}, {"nodeid": 0, "depth": 0, "split": "f1", "split_condition": 4800, "yes": 1, "no": 2, "missing": 2, "children": [{"nodeid": 1, "depth": 1, "split": "f0", "split_condition": 65.9499969, "yes": 3, "no": 4, "missing": 4, "children": [{"nodeid": 3, "depth": 2, "split": "f1", "split_condition": 77.5, "yes": 5, "no": 6, "missing": 6, "children": [{"nodeid": 5, "leaf": 0.00319776544}, {"nodeid": 6, "leaf": -0.00462236395}]}, {"nodeid": 4, "depth": 2, "split": "f1", "split_condition": 1255.59998, "yes": 7, "no": 8, "missing": 8, "children": [{"nodeid": 7, "leaf": 0.000786844932}, {"nodeid": 8, "leaf": 0.00297279353}]}]}, {"nodeid": 2, "leaf": -0.00625019101}]}, {"nodeid": 0, "depth": 0, "split": "f1", "split_condition": 4800, "yes": 1, "no": 2, "missing": 2, "children": [{"nodeid": 1, "depth": 1, "split": "f1", "split_condition": 1255.59998, "yes": 3, "no": 4, "missing": 4, "children": [{"nodeid": 3, "depth": 2, "split": "f0", "split_condition": 65.9499969, "yes": 5, "no": 6, "missing": 6, "children": [{"nodeid": 5, "leaf": 0.00303783431}, {"nodeid": 6, "leaf": 0.000645160675}]}, {"nodeid": 4, "depth": 2, "split": "f0", "split_condition": 65.9499969, "yes": 7, "no": 8, "missing": 8, "children": [{"nodeid": 7, "leaf": -0.00439128885}, {"nodeid": 8, "leaf": 0.00119600294}]}]}, {"nodeid": 2, "leaf": -0.00593767175}]}, {"nodeid": 0, "depth": 0, "split": "f0", "split_condition": 67.5, "yes": 1, "no": 2, "missing": 2, "children": [{"nodeid": 1, "depth": 1, "split": "f1", "split_condition": 73.3000031, "yes": 3, "no": 4, "missing": 4, "children": [{"nodeid": 3, "leaf": 0.00042409898}, {"nodeid": 4, "depth": 2, "split": "f0", "split_condition": 66.5999985, "yes": 5, "no": 6, "missing": 6, "children": [{"nodeid": 5, "leaf": 0.00383853912}, {"nodeid": 6, "leaf": 0.000612926495}]}]}, {"nodeid": 2, "leaf": -0.0049802782}]}, {"nodeid": 0, "depth": 0, "split": "f3", "split_condition": 3127.5, "yes": 1, "no": 2, "missing": 2, "children": [{"nodeid": 1, "leaf": 0.00268001552}, {"nodeid": 2, "depth": 1, "split": "f1", "split_condition": 1255.59998, "yes": 3, "no": 4, "missing": 4, "children": [{"nodeid": 3, "leaf": 0.000656827295}, {"nodeid": 4, "leaf": -0.00566802034}]}]}, {"nodeid": 0, "depth": 0, "split": "f0", "split_condition": 67.5, "yes": 1, "no": 2, "missing": 2, "children": [{"nodeid": 1, "depth": 1, "split": "f1", "split_condition": 73.3000031, "yes": 3, "no": 4, "missing": 4, "children": [{"nodeid": 3, "leaf": 0.000370121008}, {"nodeid": 4, "depth": 2, "split": "f0", "split_condition": 66.5999985, "yes": 7, "no": 8, "missing": 8, "children": [{"nodeid": 7, "leaf": 0.00347143831}, {"nodeid": 8, "leaf": 0.000549507153}]}]}, {"nodeid": 2, "depth": 1, "split": "f1", "split_condition": 4800, "yes": 5, "no": 6, "missing": 6, "children": [{"nodeid": 5, "leaf": -0.00129718788}, {"nodeid": 6, "leaf": -0.00510835648}]}]}, {"nodeid": 0, "depth": 0, "split": "f3", "split_condition": 3127.5, "yes": 1, "no": 2, "missing": 2, "children": [{"nodeid": 1, "leaf": 0.00237245555}, {"nodeid": 2, "depth": 1, "split": "f1", "split_condition": 1255.59998, "yes": 3, "no": 4, "missing": 4, "children": [{"nodeid": 3, "leaf": 0.000582440698}, {"nodeid": 4, "leaf": -0.00516953459}]}]}, {"nodeid": 0, "depth": 0, "split": "f1", "split_condition": 4800, "yes": 1, "no": 2, "missing": 2, "children": [{"nodeid": 1, "depth": 1, "split": "f0", "split_condition": 65.9499969, "yes": 3, "no": 4, "missing": 4, "children": [{"nodeid": 3, "depth": 2, "split": "f1", "split_condition": 77.5, "yes": 5, "no": 6, "missing": 6, "children": [{"nodeid": 5, "leaf": 0.00245847716}, {"nodeid": 6, "leaf": -0.00399532309}]}, {"nodeid": 4, "depth": 2, "split": "f3", "split_condition": 3127.5, "yes": 7, "no": 8, "missing": 8, "children": [{"nodeid": 7, "leaf": 0.00225381856}, {"nodeid": 8, "leaf": 0.000687360764}]}]}, {"nodeid": 2, "leaf": -0.00459451694}]}, {"nodeid": 0, "depth": 0, "split": "f1", "split_condition": 4800, "yes": 1, "no": 2, "missing": 2, "children": [{"nodeid": 1, "depth": 1, "split": "f0", "split_condition": 65.9499969, "yes": 3, "no": 4, "missing": 4, "children": [{"nodeid": 3, "depth": 2, "split": "f1", "split_condition": 77.5, "yes": 5, "no": 6, "missing": 6, "children": [{"nodeid": 5, "leaf": 0.0023355484}, {"nodeid": 6, "leaf": -0.00379552855}]}, {"nodeid": 4, "depth": 2, "split": "f1", "split_condition": 1255.59998, "yes": 7, "no": 8, "missing": 8, "children": [{"nodeid": 7, "leaf": 0.000497881556}, {"nodeid": 8, "leaf": 0.00275522866}]}]}, {"nodeid": 2, "leaf": -0.00436477689}]}, {"nodeid": 0, "depth": 0, "split": "f1", "split_condition": 4800, "yes": 1, "no": 2, "missing": 2, "children": [{"nodeid": 1, "depth": 1, "split": "f1", "split_condition": 73.3000031, "yes": 3, "no": 4, "missing": 4, "children": [{"nodeid": 3, "leaf": 0.000263309485}, {"nodeid": 4, "depth": 2, "split": "f3", "split_condition": 4800, "yes": 5, "no": 6, "missing": 6, "children": [{"nodeid": 5, "leaf": 0.003038025}, {"nodeid": 6, "leaf": 0.000433731097}]}]}, {"nodeid": 2, "leaf": -0.00414657593}]}, {"nodeid": 0, "depth": 0, "split": "f1", "split_condition": 4800, "yes": 1, "no": 2, "missing": 2, "children": [{"nodeid": 1, "depth": 1, "split": "f0", "split_condition": 65.9499969, "yes": 3, "no": 4, "missing": 4, "children": [{"nodeid": 3, "depth": 2, "split": "f1", "split_condition": 77.5, "yes": 5, "no": 6, "missing": 6, "children": [{"nodeid": 5, "leaf": 0.00206689839}, {"nodeid": 6, "leaf": -0.00375766749}]}, {"nodeid": 4, "depth": 2, "split": "f3", "split_condition": 3127.5, "yes": 7, "no": 8, "missing": 8, "children": [{"nodeid": 7, "leaf": 0.001851368}, {"nodeid": 8, "leaf": 0.000426521292}]}]}, {"nodeid": 2, "leaf": -0.00393924722}]}, {"nodeid": 0, "depth": 0, "split": "f1", "split_condition": 4800, "yes": 1, "no": 2, "missing": 2, "children": [{"nodeid": 1, "depth": 1, "split": "f3", "split_condition": 4500, "yes": 3, "no": 4, "missing": 4, "children": [{"nodeid": 3, "depth": 2, "split": "f0", "split_condition": 65.9499969, "yes": 5, "no": 6, "missing": 6, "children": [{"nodeid": 5, "leaf": -0.00356979365}, {"nodeid": 6, "leaf": 0.000939559948}]}, {"nodeid": 4, "leaf": 0.00196352019}]}, {"nodeid": 2, "leaf": -0.00374231348}]}, {"nodeid": 0, "depth": 0, "split": "f3", "split_condition": 3127.5, "yes": 1, "no": 2, "missing": 2, "children": [{"nodeid": 1, "leaf": 0.00171175005}, {"nodeid": 2, "depth": 1, "split": "f1", "split_condition": 1255.59998, "yes": 3, "no": 4, "missing": 4, "children": [{"nodeid": 3, "leaf": 0.000316238409}, {"nodeid": 4, "leaf": -0.00267166155}]}]}, {"nodeid": 0, "depth": 0, "split": "f1", "split_condition": 4800, "yes": 1, "no": 2, "missing": 2, "children": [{"nodeid": 1, "depth": 1, "split": "f1", "split_condition": 73.3000031, "yes": 3, "no": 4, "missing": 4, "children": [{"nodeid": 3, "leaf": 0.000165939331}, {"nodeid": 4, "leaf": 0.00226230617}]}, {"nodeid": 2, "leaf": -0.00342159276}]}, {"nodeid": 0, "depth": 0, "split": "f1", "split_condition": 4800, "yes": 1, "no": 2, "missing": 2, "children": [{"nodeid": 1, "depth": 1, "split": "f1", "split_condition": 77.5, "yes": 3, "no": 4, "missing": 4, "children": [{"nodeid": 3, "leaf": 0.00173645024}, {"nodeid": 4, "depth": 2, "split": "f0", "split_condition": 65.9499969, "yes": 5, "no": 6, "missing": 6, "children": [{"nodeid": 5, "leaf": -0.00337076187}, {"nodeid": 6, "leaf": 0.000794029271}]}]}, {"nodeid": 2, "leaf": -0.00325050368}]}, {"nodeid": 0, "depth": 0, "split": "f1", "split_condition": 4800, "yes": 1, "no": 2, "missing": 2, "children": [{"nodeid": 1, "depth": 1, "split": "f1", "split_condition": 77.5, "yes": 3, "no": 4, "missing": 4, "children": [{"nodeid": 3, "leaf": 0.00164966588}, {"nodeid": 4, "depth": 2, "split": "f0", "split_condition": 65.9499969, "yes": 5, "no": 6, "missing": 6, "children": [{"nodeid": 5, "leaf": -0.00320224767}, {"nodeid": 6, "leaf": 0.000730552652}]}]}, {"nodeid": 2, "leaf": -0.00308799744}]}, {"nodeid": 0, "depth": 0, "split": "f1", "split_condition": 4800, "yes": 1, "no": 2, "missing": 2, "children": [{"nodeid": 1, "depth": 1, "split": "f0", "split_condition": 66.5999985, "yes": 3, "no": 4, "missing": 4, "children": [{"nodeid": 3, "depth": 2, "split": "f1", "split_condition": 73.3000031, "yes": 5, "no": 6, "missing": 6, "children": [{"nodeid": 5, "leaf": -1.16348265e-05}, {"nodeid": 6, "leaf": 0.00200271606}]}, {"nodeid": 4, "leaf": 0.000121688841}]}, {"nodeid": 2, "leaf": -0.00293359766}]}, {"nodeid": 0, "depth": 0, "split": "f1", "split_condition": 1255.59998, "yes": 1, "no": 2, "missing": 2, "children": [{"nodeid": 1, "depth": 1, "split": "f0", "split_condition": 65.9499969, "yes": 3, "no": 4, "missing": 4, "children": [{"nodeid": 3, "leaf": 0.00146703725}, {"nodeid": 4, "leaf": 4.68571998e-05}]}, {"nodeid": 2, "depth": 1, "split": "f3", "split_condition": 3127.5, "yes": 5, "no": 6, "missing": 6, "children": [{"nodeid": 5, "leaf": 0.00133676536}, {"nodeid": 6, "leaf": -0.00231418619}]}]}, {"nodeid": 0, "depth": 0, "split": "f1", "split_condition": 4800, "yes": 1, "no": 2, "missing": 2, "children": [{"nodeid": 1, "depth": 1, "split": "f0", "split_condition": 65.9499969, "yes": 3, "no": 4, "missing": 4, "children": [{"nodeid": 3, "depth": 2, "split": "f1", "split_condition": 77.5, "yes": 5, "no": 6, "missing": 6, "children": [{"nodeid": 5, "leaf": 0.00139369967}, {"nodeid": 6, "leaf": -0.0030265809}]}, {"nodeid": 4, "depth": 2, "split": "f3", "split_condition": 3127.5, "yes": 7, "no": 8, "missing": 8, "children": [{"nodeid": 7, "leaf": 0.0012699127}, {"nodeid": 8, "leaf": 0.000176239017}]}]}, {"nodeid": 2, "leaf": -0.00267124176}]}, {"nodeid": 0, "depth": 0, "split": "f3", "split_condition": 3127.5, "yes": 1, "no": 2, "missing": 2, "children": [{"nodeid": 1, "leaf": 0.00120639801}, {"nodeid": 2, "depth": 1, "split": "f1", "split_condition": 1255.59998, "yes": 3, "no": 4, "missing": 4, "children": [{"nodeid": 3, "leaf": 7.01904282e-05}, {"nodeid": 4, "depth": 2, "split": "f0", "split_condition": 65.9499969, "yes": 5, "no": 6, "missing": 6, "children": [{"nodeid": 5, "leaf": -0.00287523284}, {"nodeid": 6, "leaf": -0.00109009747}]}]}]}, {"nodeid": 0, "depth": 0, "split": "f1", "split_condition": 4800, "yes": 1, "no": 2, "missing": 2, "children": [{"nodeid": 1, "depth": 1, "split": "f3", "split_condition": 3127.5, "yes": 3, "no": 4, "missing": 4, "children": [{"nodeid": 3, "leaf": 0.00114612584}, {"nodeid": 4, "depth": 2, "split": "f0", "split_condition": 67.5, "yes": 5, "no": 6, "missing": 6, "children": [{"nodeid": 5, "leaf": 2.72750858e-05}, {"nodeid": 6, "leaf": 0.000311088574}]}]}, {"nodeid": 2, "leaf": -0.00248317723}]}, {"nodeid": 0, "depth": 0, "split": "f1", "split_condition": 4800, "yes": 1, "no": 2, "missing": 2, "children": [{"nodeid": 1, "depth": 1, "split": "f1", "split_condition": 73.3000031, "yes": 3, "no": 4, "missing": 4, "children": [{"nodeid": 3, "leaf": -2.70843502e-05}, {"nodeid": 4, "depth": 2, "split": "f3", "split_condition": 4800, "yes": 5, "no": 6, "missing": 6, "children": [{"nodeid": 5, "leaf": 0.00206284528}, {"nodeid": 6, "leaf": 6.53266907e-05}]}]}, {"nodeid": 2, "leaf": -0.00235900888}]}, {"nodeid": 0, "depth": 0, "split": "f1", "split_condition": 4800, "yes": 1, "no": 2, "missing": 2, "children": [{"nodeid": 1, "depth": 1, "split": "f0", "split_condition": 66.5999985, "yes": 3, "no": 4, "missing": 4, "children": [{"nodeid": 3, "leaf": 0.000985622406}, {"nodeid": 4, "leaf": 0.000145626065}]}, {"nodeid": 2, "leaf": -0.00224103942}]}, {"nodeid": 0, "depth": 0, "split": "f1", "split_condition": 4800, "yes": 1, "no": 2, "missing": 2, "children": [{"nodeid": 1, "depth": 1, "split": "f0", "split_condition": 66.5999985, "yes": 3, "no": 4, "missing": 4, "children": [{"nodeid": 3, "leaf": 0.00140196492}, {"nodeid": 4, "leaf": 0.000134754184}]}, {"nodeid": 2, "leaf": -0.00212898268}]}, {"nodeid": 0, "depth": 0, "split": "f1", "split_condition": 1255.59998, "yes": 1, "no": 2, "missing": 2, "children": [{"nodeid": 1, "depth": 1, "split": "f0", "split_condition": 65.9499969, "yes": 3, "no": 4, "missing": 4, "children": [{"nodeid": 3, "leaf": 0.00109653478}, {"nodeid": 4, "depth": 2, "split": "f0", "split_condition": 66.5999985, "yes": 7, "no": 8, "missing": 8, "children": [{"nodeid": 7, "leaf": -0.000145149228}, {"nodeid": 8, "leaf": 4.8065187e-05}]}]}, {"nodeid": 2, "depth": 1, "split": "f3", "split_condition": 3127.5, "yes": 5, "no": 6, "missing": 6, "children": [{"nodeid": 5, "leaf": 0.00086622237}, {"nodeid": 6, "leaf": -0.00318870554}]}]}, {"nodeid": 0, "depth": 0, "split": "f1", "split_condition": 1255.59998, "yes": 1, "no": 2, "missing": 2, "children": [{"nodeid": 1, "depth": 1, "split": "f0", "split_condition": 65.9499969, "yes": 3, "no": 4, "missing": 4, "children": [{"nodeid": 3, "leaf": 0.0010416985}, {"nodeid": 4, "leaf": 4.56810012e-05}]}, {"nodeid": 2, "depth": 1, "split": "f0", "split_condition": 65.9499969, "yes": 5, "no": 6, "missing": 6, "children": [{"nodeid": 5, "leaf": -0.00279598241}, {"nodeid": 6, "depth": 2, "split": "f1", "split_condition": 4800, "yes": 7, "no": 8, "missing": 8, "children": [{"nodeid": 7, "leaf": 0.000671482121}, {"nodeid": 8, "leaf": -0.00186309812}]}]}]}, {"nodeid": 0, "depth": 0, "split": "f1", "split_condition": 4800, "yes": 1, "no": 2, "missing": 2, "children": [{"nodeid": 1, "depth": 1, "split": "f1", "split_condition": 73.3000031, "yes": 3, "no": 4, "missing": 4, "children": [{"nodeid": 3, "leaf": -0.000140190125}, {"nodeid": 4, "depth": 2, "split": "f0", "split_condition": 66.5999985, "yes": 5, "no": 6, "missing": 6, "children": [{"nodeid": 5, "leaf": 0.00118598936}, {"nodeid": 6, "leaf": 0.000248146069}]}]}, {"nodeid": 2, "leaf": -0.00176992419}]}, {"nodeid": 0, "depth": 0, "split": "f3", "split_condition": 4500, "yes": 1, "no": 2, "missing": 2, "children": [{"nodeid": 1, "depth": 1, "split": "f0", "split_condition": 65.9499969, "yes": 3, "no": 4, "missing": 4, "children": [{"nodeid": 3, "leaf": -0.00271549239}, {"nodeid": 4, "depth": 2, "split": "f1", "split_condition": 4800, "yes": 7, "no": 8, "missing": 8, "children": [{"nodeid": 7, "leaf": 0.000409965491}, {"nodeid": 8, "leaf": -0.00168142316}]}]}, {"nodeid": 2, "depth": 1, "split": "f0", "split_condition": 65.9499969, "yes": 5, "no": 6, "missing": 6, "children": [{"nodeid": 5, "leaf": 0.000930309296}, {"nodeid": 6, "leaf": 3.09944153e-05}]}]}, {"nodeid": 0, "depth": 0, "split": "f3", "split_condition": 4500, "yes": 1, "no": 2, "missing": 2, "children": [{"nodeid": 1, "depth": 1, "split": "f0", "split_condition": 65.9499969, "yes": 3, "no": 4, "missing": 4, "children": [{"nodeid": 3, "leaf": -0.00257968903}, {"nodeid": 4, "depth": 2, "split": "f1", "split_condition": 4800, "yes": 7, "no": 8, "missing": 8, "children": [{"nodeid": 7, "leaf": 0.000377159129}, {"nodeid": 8, "leaf": -0.00159730914}]}]}, {"nodeid": 2, "depth": 1, "split": "f0", "split_condition": 65.9499969, "yes": 5, "no": 6, "missing": 6, "children": [{"nodeid": 5, "leaf": 0.000883770001}, {"nodeid": 6, "leaf": 2.9468536e-05}]}]}, {"nodeid": 0, "depth": 0, "split": "f1", "split_condition": 4800, "yes": 1, "no": 2, "missing": 2, "children": [{"nodeid": 1, "depth": 1, "split": "f0", "split_condition": 65.9499969, "yes": 3, "no": 4, "missing": 4, "children": [{"nodeid": 3, "depth": 2, "split": "f1", "split_condition": 77.5, "yes": 5, "no": 6, "missing": 6, "children": [{"nodeid": 5, "leaf": 0.000839614891}, {"nodeid": 6, "leaf": -0.0024507523}]}, {"nodeid": 4, "depth": 2, "split": "f1", "split_condition": 73.3000031, "yes": 7, "no": 8, "missing": 8, "children": [{"nodeid": 7, "leaf": -0.000172615051}, {"nodeid": 8, "leaf": 0.0015768687}]}]}, {"nodeid": 2, "leaf": -0.00151748664}]}, {"nodeid": 0, "depth": 0, "split": "f3", "split_condition": 4500, "yes": 1, "no": 2, "missing": 2, "children": [{"nodeid": 1, "depth": 1, "split": "f0", "split_condition": 65.9499969, "yes": 3, "no": 4, "missing": 4, "children": [{"nodeid": 3, "leaf": -0.00232820516}, {"nodeid": 4, "depth": 2, "split": "f1", "split_condition": 4800, "yes": 7, "no": 8, "missing": 8, "children": [{"nodeid": 7, "leaf": 0.000255775463}, {"nodeid": 8, "leaf": -0.00144157407}]}]}, {"nodeid": 2, "depth": 1, "split": "f0", "split_condition": 65.9499969, "yes": 5, "no": 6, "missing": 6, "children": [{"nodeid": 5, "leaf": 0.000797653222}, {"nodeid": 6, "leaf": -5.08308403e-05}]}]}, {"nodeid": 0, "depth": 0, "split": "f3", "split_condition": 4500, "yes": 1, "no": 2, "missing": 2, "children": [{"nodeid": 1, "depth": 1, "split": "f0", "split_condition": 65.9499969, "yes": 3, "no": 4, "missing": 4, "children": [{"nodeid": 3, "leaf": -0.00221176143}, {"nodeid": 4, "depth": 2, "split": "f1", "split_condition": 4800, "yes": 5, "no": 6, "missing": 6, "children": [{"nodeid": 5, "leaf": 0.000235328684}, {"nodeid": 6, "leaf": -0.00136947632}]}]}, {"nodeid": 2, "leaf": 0.000757789647}]}, {"nodeid": 0, "depth": 0, "split": "f3", "split_condition": 4500, "yes": 1, "no": 2, "missing": 2, "children": [{"nodeid": 1, "depth": 1, "split": "f0", "split_condition": 65.9499969, "yes": 3, "no": 4, "missing": 4, "children": [{"nodeid": 3, "leaf": -0.00210113521}, {"nodeid": 4, "depth": 2, "split": "f1", "split_condition": 4800, "yes": 5, "no": 6, "missing": 6, "children": [{"nodeid": 5, "leaf": 0.000216560366}, {"nodeid": 6, "leaf": -0.00130100257}]}]}, {"nodeid": 2, "leaf": 0.000719928765}]}, {"nodeid": 0, "depth": 0, "split": "f1", "split_condition": 4800, "yes": 1, "no": 2, "missing": 2, "children": [{"nodeid": 1, "depth": 1, "split": "f1", "split_condition": 73.3000031, "yes": 3, "no": 4, "missing": 4, "children": [{"nodeid": 3, "leaf": -0.000199317932}, {"nodeid": 4, "depth": 2, "split": "f0", "split_condition": 66.5999985, "yes": 5, "no": 6, "missing": 6, "children": [{"nodeid": 5, "leaf": 0.000840250694}, {"nodeid": 6, "leaf": -6.1988834e-07}]}]}, {"nodeid": 2, "leaf": -0.00123596191}]}, {"nodeid": 0, "depth": 0, "split": "f1", "split_condition": 77.5, "yes": 1, "no": 2, "missing": 2, "children": [{"nodeid": 1, "depth": 1, "split": "f0", "split_condition": 65.9499969, "yes": 3, "no": 4, "missing": 4, "children": [{"nodeid": 3, "leaf": 0.000641918217}, {"nodeid": 4, "leaf": -0.000189304352}]}, {"nodeid": 2, "depth": 1, "split": "f3", "split_condition": 3127.5, "yes": 5, "no": 6, "missing": 6, "children": [{"nodeid": 5, "leaf": 0.000534343708}, {"nodeid": 6, "leaf": -0.00214150758}]}]}, {"nodeid": 0, "depth": 0, "split": "f0", "split_condition": 65.9499969, "yes": 1, "no": 2, "missing": 2, "children": [{"nodeid": 1, "depth": 1, "split": "f1", "split_condition": 77.5, "yes": 3, "no": 4, "missing": 4, "children": [{"nodeid": 3, "leaf": 0.000609779381}, {"nodeid": 4, "leaf": -0.0019309998}]}, {"nodeid": 2, "depth": 1, "split": "f1", "split_condition": 4800, "yes": 5, "no": 6, "missing": 6, "children": [{"nodeid": 5, "depth": 2, "split": "f1", "split_condition": 1255.59998, "yes": 7, "no": 8, "missing": 8, "children": [{"nodeid": 7, "leaf": -0.000129890439}, {"nodeid": 8, "leaf": 0.00145009358}]}, {"nodeid": 6, "leaf": -0.00106706622}]}]}, {"nodeid": 0, "depth": 0, "split": "f1", "split_condition": 4800, "yes": 1, "no": 2, "missing": 2, "children": [{"nodeid": 1, "depth": 1, "split": "f1", "split_condition": 1255.59998, "yes": 3, "no": 4, "missing": 4, "children": [{"nodeid": 3, "depth": 2, "split": "f0", "split_condition": 66.5999985, "yes": 5, "no": 6, "missing": 6, "children": [{"nodeid": 5, "leaf": -0.000173377994}, {"nodeid": 6, "leaf": -8.48770196e-06}]}, {"nodeid": 4, "leaf": 0.00135345466}]}, {"nodeid": 2, "leaf": -0.0010137558}]}, {"nodeid": 0, "depth": 0, "split": "f3", "split_condition": 4500, "yes": 1, "no": 2, "missing": 2, "children": [{"nodeid": 1, "depth": 1, "split": "f0", "split_condition": 65.9499969, "yes": 3, "no": 4, "missing": 4, "children": [{"nodeid": 3, "leaf": -0.00190219877}, {"nodeid": 4, "depth": 2, "split": "f1", "split_condition": 4800, "yes": 7, "no": 8, "missing": 8, "children": [{"nodeid": 7, "leaf": 0.000102958678}, {"nodeid": 8, "leaf": -0.000963020313}]}]}, {"nodeid": 2, "depth": 1, "split": "f0", "split_condition": 65.9499969, "yes": 5, "no": 6, "missing": 6, "children": [{"nodeid": 5, "leaf": 0.000587940216}, {"nodeid": 6, "leaf": -8.10623169e-06}]}]}, {"nodeid": 0, "depth": 0, "split": "f3", "split_condition": 4500, "yes": 1, "no": 2, "missing": 2, "children": [{"nodeid": 1, "depth": 1, "split": "f0", "split_condition": 65.9499969, "yes": 3, "no": 4, "missing": 4, "children": [{"nodeid": 3, "leaf": -0.00180711749}, {"nodeid": 4, "depth": 2, "split": "f1", "split_condition": 4800, "yes": 7, "no": 8, "missing": 8, "children": [{"nodeid": 7, "leaf": 9.47189328e-05}, {"nodeid": 8, "leaf": -0.00091485976}]}]}, {"nodeid": 2, "depth": 1, "split": "f0", "split_condition": 65.9499969, "yes": 5, "no": 6, "missing": 6, "children": [{"nodeid": 5, "leaf": 0.000558567059}, {"nodeid": 6, "leaf": -7.72476233e-06}]}]}, {"nodeid": 0, "depth": 0, "split": "f0", "split_condition": 65.9499969, "yes": 1, "no": 2, "missing": 2, "children": [{"nodeid": 1, "depth": 1, "split": "f1", "split_condition": 77.5, "yes": 3, "no": 4, "missing": 4, "children": [{"nodeid": 3, "leaf": 0.000530624413}, {"nodeid": 4, "leaf": -0.00171680457}]}, {"nodeid": 2, "depth": 1, "split": "f1", "split_condition": 4800, "yes": 5, "no": 6, "missing": 6, "children": [{"nodeid": 5, "depth": 2, "split": "f1", "split_condition": 1255.59998, "yes": 7, "no": 8, "missing": 8, "children": [{"nodeid": 7, "leaf": -0.000121307377}, {"nodeid": 8, "leaf": 0.00124994921}]}, {"nodeid": 6, "leaf": -0.000869083393}]}]}, {"nodeid": 0, "depth": 0, "split": "f0", "split_condition": 65.9499969, "yes": 1, "no": 2, "missing": 2, "children": [{"nodeid": 1, "depth": 1, "split": "f1", "split_condition": 77.5, "yes": 3, "no": 4, "missing": 4, "children": [{"nodeid": 3, "leaf": 0.000504112279}, {"nodeid": 4, "leaf": -0.00163097389}]}, {"nodeid": 2, "depth": 1, "split": "f1", "split_condition": 4800, "yes": 5, "no": 6, "missing": 6, "children": [{"nodeid": 5, "depth": 2, "split": "f0", "split_condition": 67.5, "yes": 7, "no": 8, "missing": 8, "children": [{"nodeid": 7, "leaf": 6.2656407e-05}, {"nodeid": 8, "leaf": 0.00145492551}]}, {"nodeid": 6, "leaf": -0.000825595867}]}]}, {"nodeid": 0, "depth": 0, "split": "f3", "split_condition": 4500, "yes": 1, "no": 2, "missing": 2, "children": [{"nodeid": 1, "depth": 1, "split": "f0", "split_condition": 65.9499969, "yes": 3, "no": 4, "missing": 4, "children": [{"nodeid": 3, "leaf": -0.00154943473}, {"nodeid": 4, "depth": 2, "split": "f3", "split_condition": 3127.5, "yes": 7, "no": 8, "missing": 8, "children": [{"nodeid": 7, "leaf": 0.000291919714}, {"nodeid": 8, "leaf": -0.000476646441}]}]}, {"nodeid": 2, "depth": 1, "split": "f0", "split_condition": 65.9499969, "yes": 5, "no": 6, "missing": 6, "children": [{"nodeid": 5, "leaf": 0.000478935253}, {"nodeid": 6, "leaf": -4.38690176e-06}]}]}, {"nodeid": 0, "depth": 0, "split": "f0", "split_condition": 66.5999985, "yes": 1, "no": 2, "missing": 2, "children": [{"nodeid": 1, "leaf": 0.000488217687}, {"nodeid": 2, "depth": 1, "split": "f1", "split_condition": 4800, "yes": 3, "no": 4, "missing": 4, "children": [{"nodeid": 3, "depth": 2, "split": "f0", "split_condition": 67.5, "yes": 5, "no": 6, "missing": 6, "children": [{"nodeid": 5, "leaf": -4.19616708e-06}, {"nodeid": 6, "leaf": -0.000125312814}]}, {"nodeid": 4, "leaf": -0.000760459923}]}]}, {"nodeid": 0, "depth": 0, "split": "f1", "split_condition": 1255.59998, "yes": 1, "no": 2, "missing": 2, "children": [{"nodeid": 1, "depth": 1, "split": "f0", "split_condition": 65.9499969, "yes": 3, "no": 4, "missing": 4, "children": [{"nodeid": 3, "leaf": 0.000430583954}, {"nodeid": 4, "depth": 2, "split": "f0", "split_condition": 66.5999985, "yes": 7, "no": 8, "missing": 8, "children": [{"nodeid": 7, "leaf": -0.000172233587}, {"nodeid": 8, "leaf": -4.0054324e-06}]}]}, {"nodeid": 2, "depth": 1, "split": "f3", "split_condition": 3127.5, "yes": 5, "no": 6, "missing": 6, "children": [{"nodeid": 5, "leaf": 0.00025291444}, {"nodeid": 6, "leaf": -0.0019032479}]}]}, {"nodeid": 0, "depth": 0, "split": "f0", "split_condition": 65.9499969, "yes": 1, "no": 2, "missing": 2, "children": [{"nodeid": 1, "depth": 1, "split": "f1", "split_condition": 77.5, "yes": 3, "no": 4, "missing": 4, "children": [{"nodeid": 3, "leaf": 0.000409030908}, {"nodeid": 4, "leaf": -0.00140123372}]}, {"nodeid": 2, "depth": 1, "split": "f1", "split_condition": 4800, "yes": 5, "no": 6, "missing": 6, "children": [{"nodeid": 5, "depth": 2, "split": "f0", "split_condition": 67.5, "yes": 7, "no": 8, "missing": 8, "children": [{"nodeid": 7, "leaf": 3.63826766e-05}, {"nodeid": 8, "leaf": 0.00150747306}]}, {"nodeid": 6, "leaf": -0.00062723161}]}]}, {"nodeid": 0, "depth": 0, "split": "f0", "split_condition": 65.9499969, "yes": 1, "no": 2, "missing": 2, "children": [{"nodeid": 1, "leaf": -0.00133113866}, {"nodeid": 2, "depth": 1, "split": "f3", "split_condition": 3127.5, "yes": 3, "no": 4, "missing": 4, "children": [{"nodeid": 3, "leaf": 0.000238418579}, {"nodeid": 4, "depth": 2, "split": "f1", "split_condition": 4800, "yes": 5, "no": 6, "missing": 6, "children": [{"nodeid": 5, "leaf": -0.000150585183}, {"nodeid": 6, "leaf": -0.000595855701}]}]}]}, {"nodeid": 0, "depth": 0, "split": "f3", "split_condition": 4500, "yes": 1, "no": 2, "missing": 2, "children": [{"nodeid": 1, "depth": 1, "split": "f0", "split_condition": 65.9499969, "yes": 3, "no": 4, "missing": 4, "children": [{"nodeid": 3, "leaf": -0.00126457214}, {"nodeid": 4, "depth": 2, "split": "f3", "split_condition": 3127.5, "yes": 7, "no": 8, "missing": 8, "children": [{"nodeid": 7, "leaf": 0.00022649765}, {"nodeid": 8, "leaf": -0.000337867736}]}]}, {"nodeid": 2, "depth": 1, "split": "f0", "split_condition": 65.9499969, "yes": 5, "no": 6, "missing": 6, "children": [{"nodeid": 5, "leaf": 0.000455188769}, {"nodeid": 6, "leaf": 1.90734863e-06}]}]}, {"nodeid": 0, "depth": 0, "split": "f3", "split_condition": 4500, "yes": 1, "no": 2, "missing": 2, "children": [{"nodeid": 1, "depth": 1, "split": "f0", "split_condition": 65.9499969, "yes": 3, "no": 4, "missing": 4, "children": [{"nodeid": 3, "leaf": -0.00120134361}, {"nodeid": 4, "depth": 2, "split": "f1", "split_condition": 4800, "yes": 5, "no": 6, "missing": 6, "children": [{"nodeid": 5, "leaf": -5.11169446e-06}, {"nodeid": 6, "leaf": -0.000549221062}]}]}, {"nodeid": 2, "leaf": 0.000432395929}]}, {"nodeid": 0, "depth": 0, "split": "f1", "split_condition": 4800, "yes": 1, "no": 2, "missing": 2, "children": [{"nodeid": 1, "depth": 1, "split": "f0", "split_condition": 66.5999985, "yes": 3, "no": 4, "missing": 4, "children": [{"nodeid": 3, "depth": 2, "split": "f1", "split_condition": 73.3000031, "yes": 5, "no": 6, "missing": 6, "children": [{"nodeid": 5, "leaf": -0.000140762335}, {"nodeid": 6, "leaf": 0.00041745507}]}, {"nodeid": 4, "leaf": 0.00145683286}]}, {"nodeid": 2, "leaf": -0.000521755253}]}, {"nodeid": 0, "depth": 0, "split": "f0", "split_condition": 65.9499969, "yes": 1, "no": 2, "missing": 2, "children": [{"nodeid": 1, "leaf": -0.0011621475}, {"nodeid": 2, "depth": 1, "split": "f0", "split_condition": 66.5999985, "yes": 3, "no": 4, "missing": 4, "children": [{"nodeid": 3, "leaf": 0.000194549561}, {"nodeid": 4, "depth": 2, "split": "f1", "split_condition": 4800, "yes": 5, "no": 6, "missing": 6, "children": [{"nodeid": 5, "leaf": -0.000162363052}, {"nodeid": 6, "leaf": -0.000495624554}]}]}]}, {"nodeid": 0, "depth": 0, "split": "f0", "split_condition": 66.5999985, "yes": 1, "no": 2, "missing": 2, "children": [{"nodeid": 1, "leaf": 0.000421841949}, {"nodeid": 2, "depth": 1, "split": "f1", "split_condition": 4800, "yes": 3, "no": 4, "missing": 4, "children": [{"nodeid": 3, "leaf": -0.000150203705}, {"nodeid": 4, "leaf": -0.000470829022}]}]}, {"nodeid": 0, "depth": 0, "split": "f0", "split_condition": 65.9499969, "yes": 1, "no": 2, "missing": 2, "children": [{"nodeid": 1, "leaf": -0.00112514501}, {"nodeid": 2, "depth": 1, "split": "f3", "split_condition": 3127.5, "yes": 3, "no": 4, "missing": 4, "children": [{"nodeid": 3, "leaf": 0.000163745877}, {"nodeid": 4, "depth": 2, "split": "f1", "split_condition": 4800, "yes": 5, "no": 6, "missing": 6, "children": [{"nodeid": 5, "leaf": -0.000176925663}, {"nodeid": 6, "leaf": -0.000447273254}]}]}]}, {"nodeid": 0, "depth": 0, "split": "f0", "split_condition": 65.9499969, "yes": 1, "no": 2, "missing": 2, "children": [{"nodeid": 1, "leaf": 0.000483131415}, {"nodeid": 2, "depth": 1, "split": "f3", "split_condition": 3127.5, "yes": 3, "no": 4, "missing": 4, "children": [{"nodeid": 3, "leaf": 0.000155544287}, {"nodeid": 4, "leaf": -0.000305442809}]}]}, {"nodeid": 0, "depth": 0, "split": "f1", "split_condition": 1255.59998, "yes": 1, "no": 2, "missing": 2, "children": [{"nodeid": 1, "depth": 1, "split": "f0", "split_condition": 65.9499969, "yes": 3, "no": 4, "missing": 4, "children": [{"nodeid": 3, "leaf": 0.000459003466}, {"nodeid": 4, "leaf": -0.000128873202}]}, {"nodeid": 2, "depth": 1, "split": "f3", "split_condition": 3127.5, "yes": 5, "no": 6, "missing": 6, "children": [{"nodeid": 5, "leaf": 0.00014772416}, {"nodeid": 6, "depth": 2, "split": "f1", "split_condition": 4800, "yes": 7, "no": 8, "missing": 8, "children": [{"nodeid": 7, "leaf": -0.00177949283}, {"nodeid": 8, "leaf": -0.000409698492}]}]}]}, {"nodeid": 0, "depth": 0, "split": "f3", "split_condition": 3127.5, "yes": 1, "no": 2, "missing": 2, "children": [{"nodeid": 1, "leaf": 0.000140380856}, {"nodeid": 2, "depth": 1, "split": "f1", "split_condition": 1255.59998, "yes": 3, "no": 4, "missing": 4, "children": [{"nodeid": 3, "leaf": -4.64439399e-05}, {"nodeid": 4, "depth": 2, "split": "f1", "split_condition": 4800, "yes": 5, "no": 6, "missing": 6, "children": [{"nodeid": 5, "leaf": -0.00166085572}, {"nodeid": 6, "leaf": -0.000389194494}]}]}]}, {"nodeid": 0, "depth": 0, "split": "f1", "split_condition": 77.5, "yes": 1, "no": 2, "missing": 2, "children": [{"nodeid": 1, "leaf": 0.000438308722}, {"nodeid": 2, "depth": 1, "split": "f0", "split_condition": 65.9499969, "yes": 3, "no": 4, "missing": 4, "children": [{"nodeid": 3, "leaf": -0.000920963299}, {"nodeid": 4, "depth": 2, "split": "f1", "split_condition": 4800, "yes": 5, "no": 6, "missing": 6, "children": [{"nodeid": 5, "leaf": 0.00011230469}, {"nodeid": 6, "leaf": -0.000369739544}]}]}]}, {"nodeid": 0, "depth": 0, "split": "f1", "split_condition": 1255.59998, "yes": 1, "no": 2, "missing": 2, "children": [{"nodeid": 1, "depth": 1, "split": "f0", "split_condition": 65.9499969, "yes": 3, "no": 4, "missing": 4, "children": [{"nodeid": 3, "leaf": 0.000416374212}, {"nodeid": 4, "leaf": -0.000135548922}]}, {"nodeid": 2, "depth": 1, "split": "f3", "split_condition": 3127.5, "yes": 5, "no": 6, "missing": 6, "children": [{"nodeid": 5, "leaf": 0.000127697}, {"nodeid": 6, "depth": 2, "split": "f1", "split_condition": 4800, "yes": 7, "no": 8, "missing": 8, "children": [{"nodeid": 7, "leaf": -0.00152314501}, {"nodeid": 8, "leaf": -0.000351238268}]}]}]}, {"nodeid": 0, "depth": 0, "split": "f3", "split_condition": 4500, "yes": 1, "no": 2, "missing": 2, "children": [{"nodeid": 1, "depth": 1, "split": "f0", "split_condition": 65.9499969, "yes": 3, "no": 4, "missing": 4, "children": [{"nodeid": 3, "leaf": -0.00079870224}, {"nodeid": 4, "depth": 2, "split": "f1", "split_condition": 4800, "yes": 7, "no": 8, "missing": 8, "children": [{"nodeid": 7, "leaf": 0.000122909551}, {"nodeid": 8, "leaf": -0.000333690637}]}]}, {"nodeid": 2, "depth": 1, "split": "f0", "split_condition": 65.9499969, "yes": 5, "no": 6, "missing": 6, "children": [{"nodeid": 5, "leaf": 0.000395584124}, {"nodeid": 6, "leaf": -4.30107139e-05}]}]}, {"nodeid": 0, "depth": 0, "split": "f1", "split_condition": 77.5, "yes": 1, "no": 2, "missing": 2, "children": [{"nodeid": 1, "leaf": 0.000375843054}, {"nodeid": 2, "depth": 1, "split": "f0", "split_condition": 65.9499969, "yes": 3, "no": 4, "missing": 4, "children": [{"nodeid": 3, "leaf": -0.000758743321}, {"nodeid": 4, "depth": 2, "split": "f1", "split_condition": 4800, "yes": 5, "no": 6, "missing": 6, "children": [{"nodeid": 5, "leaf": 0.000217866895}, {"nodeid": 6, "leaf": -0.000317001337}]}]}]}, {"nodeid": 0, "depth": 0, "split": "f3", "split_condition": 4500, "yes": 1, "no": 2, "missing": 2, "children": [{"nodeid": 1, "depth": 1, "split": "f0", "split_condition": 65.9499969, "yes": 3, "no": 4, "missing": 4, "children": [{"nodeid": 3, "leaf": -0.000720787037}, {"nodeid": 4, "depth": 2, "split": "f1", "split_condition": 4800, "yes": 7, "no": 8, "missing": 8, "children": [{"nodeid": 7, "leaf": 9.25827044e-05}, {"nodeid": 8, "leaf": -0.000301170367}]}]}, {"nodeid": 2, "depth": 1, "split": "f0", "split_condition": 65.9499969, "yes": 5, "no": 6, "missing": 6, "children": [{"nodeid": 5, "leaf": 0.000357055658}, {"nodeid": 6, "leaf": -5.16891487e-05}]}]}], "imputer_means": [65.95, 1255.6, 4800.0, 3127.5], "n_features": 4}, "Free_100": {"trees": [{"nodeid": 0, "depth": 0, "split": "f1", "split_condition": 4500, "yes": 1, "no": 2, "missing": 2, "children": [{"nodeid": 1, "depth": 1, "split": "f0", "split_condition": 449.230011, "yes": 3, "no": 4, "missing": 4, "children": [{"nodeid": 3, "depth": 2, "split": "f0", "split_condition": 67.5, "yes": 5, "no": 6, "missing": 6, "children": [{"nodeid": 5, "leaf": 0.0101467893}, {"nodeid": 6, "leaf": -0.0353777558}]}, {"nodeid": 4, "depth": 2, "split": "f3", "split_condition": 81.5999985, "yes": 7, "no": 8, "missing": 8, "children": [{"nodeid": 7, "leaf": -0.00503330259}, {"nodeid": 8, "leaf": 0.0444500931}]}]}, {"nodeid": 2, "leaf": -0.108033374}]}, {"nodeid": 0, "depth": 0, "split": "f1", "split_condition": 4500, "yes": 1, "no": 2, "missing": 2, "children": [{"nodeid": 1, "depth": 1, "split": "f0", "split_condition": 449.230011, "yes": 3, "no": 4, "missing": 4, "children": [{"nodeid": 3, "depth": 2, "split": "f1", "split_condition": 2013.55713, "yes": 5, "no": 6, "missing": 6, "children": [{"nodeid": 5, "leaf": 0.0109458929}, {"nodeid": 6, "leaf": -0.027883593}]}, {"nodeid": 4, "depth": 2, "split": "f3", "split_condition": 81.5999985, "yes": 7, "no": 8, "missing": 8, "children": [{"nodeid": 7, "leaf": -0.00478172302}, {"nodeid": 8, "leaf": 0.0387908183}]}]}, {"nodeid": 2, "leaf": -0.102631763}]}, {"nodeid": 0, "depth": 0, "split": "f1", "split_condition": 4800, "yes": 1, "no": 2, "missing": 2, "children": [{"nodeid": 1, "depth": 1, "split": "f0", "split_condition": 65, "yes": 3, "no": 4, "missing": 4, "children": [{"nodeid": 3, "leaf": -0.0396463387}, {"nodeid": 4, "depth": 2, "split": "f1", "split_condition": 4500, "yes": 5, "no": 6, "missing": 6, "children": [{"nodeid": 5, "leaf": 0.0209289007}, {"nodeid": 6, "leaf": 0.0643332228}]}]}, {"nodeid": 2, "leaf": -0.0975002274}]}, {"nodeid": 0, "depth": 0, "split": "f1", "split_condition": 4800, "yes": 1, "no": 2, "missing": 2, "children": [{"nodeid": 1, "depth": 1, "split": "f1", "split_condition": 4500, "yes": 3, "no": 4, "missing": 4, "children": [{"nodeid": 3, "depth": 2, "split": "f1", "split_condition": 2013.55713, "yes": 5, "no": 6, "missing": 6, "children": [{"nodeid": 5, "leaf": 0.0207107551}, {"nodeid": 6, "leaf": -0.0194283016}]}, {"nodeid": 4, "leaf": 0.0600442253}]}, {"nodeid": 2, "leaf": -0.092625238}]}, {"nodeid": 0, "depth": 0, "split": "f1", "split_condition": 4800, "yes": 1, "no": 2, "missing": 2, "children": [{"nodeid": 1, "depth": 1, "split": "f0", "split_condition": 449.230011, "yes": 3, "no": 4, "missing": 4, "children": [{"nodeid": 3, "depth": 2, "split": "f1", "split_condition": 2013.55713, "yes": 5, "no": 6, "missing": 6, "children": [{"nodeid": 5, "leaf": 0.00945955887}, {"nodeid": 6, "leaf": -0.0246751793}]}, {"nodeid": 4, "depth": 2, "split": "f3", "split_condition": 81.5999985, "yes": 7, "no": 8, "missing": 8, "children": [{"nodeid": 7, "leaf": -0.00461750058}, {"nodeid": 8, "leaf": 0.0337825008}]}]}, {"nodeid": 2, "leaf": -0.0879940018}]}, {"nodeid": 0, "depth": 0, "split": "f1", "split_condition": 4800, "yes": 1, "no": 2, "missing": 2, "children": [{"nodeid": 1, "depth": 1, "split": "f0", "split_condition": 449.230011, "yes": 3, "no": 4, "missing": 4, "children": [{"nodeid": 3, "depth": 2, "split": "f1", "split_condition": 4500, "yes": 5, "no": 6, "missing": 6, "children": [{"nodeid": 5, "leaf": -0.0175631922}, {"nodeid": 6, "leaf": 0.0420146957}]}, {"nodeid": 4, "depth": 2, "split": "f3", "split_condition": 81.5999985, "yes": 7, "no": 8, "missing": 8, "children": [{"nodeid": 7, "leaf": -0.0043867114}, {"nodeid": 8, "leaf": 0.031259384}]}]}, {"nodeid": 2, "leaf": -0.0835943222}]}, {"nodeid": 0, "depth": 0, "split": "f1", "split_condition": 4800, "yes": 1, "no": 2, "missing": 2, "children": [{"nodeid": 1, "depth": 1, "split": "f1", "split_condition": 4500, "yes": 3, "no": 4, "missing": 4, "children": [{"nodeid": 3, "depth": 2, "split": "f0", "split_condition": 449.230011, "yes": 5, "no": 6, "missing": 6, "children": [{"nodeid": 5, "leaf": -0.0121167181}, {"nodeid": 6, "leaf": 0.0193035137}]}, {"nodeid": 4, "leaf": 0.0532952622}]}, {"nodeid": 2, "leaf": -0.0794145614}]}, {"nodeid": 0, "depth": 0, "split": "f1", "split_condition": 4800, "yes": 1, "no": 2, "missing": 2, "children": [{"nodeid": 1, "depth": 1, "split": "f0", "split_condition": 67.5, "yes": 3, "no": 4, "missing": 4, "children": [{"nodeid": 3, "depth": 2, "split": "f1", "split_condition": 2013.55713, "yes": 5, "no": 6, "missing": 6, "children": [{"nodeid": 5, "leaf": 0.00834121741}, {"nodeid": 6, "leaf": 0.0541636162}]}, {"nodeid": 4, "depth": 2, "split": "f0", "split_condition": 449.230011, "yes": 7, "no": 8, "missing": 8, "children": [{"nodeid": 7, "leaf": -0.0276367199}, {"nodeid": 8, "leaf": 0.0168999489}]}]}, {"nodeid": 2, "leaf": -0.0754438415}]}, {"nodeid": 0, "depth": 0, "split": "f1", "split_condition": 4800, "yes": 1, "no": 2, "missing": 2, "children": [{"nodeid": 1, "depth": 1, "split": "f0", "split_condition": 65, "yes": 3, "no": 4, "missing": 4, "children": [{"nodeid": 3, "leaf": -0.0366832726}, {"nodeid": 4, "depth": 2, "split": "f3", "split_condition": 81.5999985, "yes": 5, "no": 6, "missing": 6, "children": [{"nodeid": 5, "leaf": -0.00597744016}, {"nodeid": 6, "leaf": 0.0334817879}]}]}, {"nodeid": 2, "leaf": -0.0716716796}]}, {"nodeid": 0, "depth": 0, "split": "f1", "split_condition": 4800, "yes": 1, "no": 2, "missing": 2, "children": [{"nodeid": 1, "depth": 1, "split": "f1", "split_condition": 4500, "yes": 3, "no": 4, "missing": 4, "children": [{"nodeid": 3, "depth": 2, "split": "f1", "split_condition": 77.5, "yes": 5, "no": 6, "missing": 6, "children": [{"nodeid": 5, "leaf": 0.0146300318}, {"nodeid": 6, "leaf": -0.0115704676}]}, {"nodeid": 4, "leaf": 0.0451413505}]}, {"nodeid": 2, "leaf": -0.0680881515}]}, {"nodeid": 0, "depth": 0, "split": "f1", "split_condition": 4800, "yes": 1, "no": 2, "missing": 2, "children": [{"nodeid": 1, "depth": 1, "split": "f1", "split_condition": 4500, "yes": 3, "no": 4, "missing": 4, "children": [{"nodeid": 3, "depth": 2, "split": "f0", "split_condition": 449.230011, "yes": 5, "no": 6, "missing": 6, "children": [{"nodeid": 5, "leaf": -0.0169179644}, {"nodeid": 6, "leaf": 0.0175181087}]}, {"nodeid": 4, "leaf": 0.0421318077}]}, {"nodeid": 2, "leaf": -0.0646837279}]}, {"nodeid": 0, "depth": 0, "split": "f1", "split_condition": 4800, "yes": 1, "no": 2, "missing": 2, "children": [{"nodeid": 1, "depth": 1, "split": "f1", "split_condition": 4500, "yes": 3, "no": 4, "missing": 4, "children": [{"nodeid": 3, "depth": 2, "split": "f0", "split_condition": 449.230011, "yes": 5, "no": 6, "missing": 6, "children": [{"nodeid": 5, "leaf": -0.0061050416}, {"nodeid": 6, "leaf": 0.01605835}]}, {"nodeid": 4, "leaf": 0.0393229164}]}, {"nodeid": 2, "leaf": -0.0614496246}]}, {"nodeid": 0, "depth": 0, "split": "f1", "split_condition": 4800, "yes": 1, "no": 2, "missing": 2, "children": [{"nodeid": 1, "depth": 1, "split": "f0", "split_condition": 65, "yes": 3, "no": 4, "missing": 4, "children": [{"nodeid": 3, "depth": 2, "split": "f1", "split_condition": 77.5, "yes": 5, "no": 6, "missing": 6, "children": [{"nodeid": 5, "leaf": 0.00970649719}, {"nodeid": 6, "leaf": -0.0331195854}]}, {"nodeid": 4, "depth": 2, "split": "f3", "split_condition": 81.5999985, "yes": 7, "no": 8, "missing": 8, "children": [{"nodeid": 7, "leaf": -0.00677890796}, {"nodeid": 8, "leaf": 0.0140704727}]}]}, {"nodeid": 2, "leaf": -0.0583770759}]}, {"nodeid": 0, "depth": 0, "split": "f1", "split_condition": 4800, "yes": 1, "no": 2, "missing": 2, "children": [{"nodeid": 1, "depth": 1, "split": "f1", "split_condition": 4500, "yes": 3, "no": 4, "missing": 4, "children": [{"nodeid": 3, "depth": 2, "split": "f3", "split_condition": 2364.7749, "yes": 5, "no": 6, "missing": 6, "children": [{"nodeid": 5, "leaf": 0.0191665646}, {"nodeid": 6, "leaf": -0.00336604635}]}, {"nodeid": 4, "leaf": 0.0357635505}]}, {"nodeid": 2, "leaf": -0.0554582588}]}, {"nodeid": 0, "depth": 0, "split": "f0", "split_condition": 449.230011, "yes": 1, "no": 2, "missing": 2, "children": [{"nodeid": 1, "depth": 1, "split": "f0", "split_condition": 66.5999985, "yes": 3, "no": 4, "missing": 4, "children": [{"nodeid": 3, "depth": 2, "split": "f0", "split_condition": 65, "yes": 7, "no": 8, "missing": 8, "children": [{"nodeid": 7, "leaf": -0.0146040609}, {"nodeid": 8, "leaf": 0.00574442558}]}, {"nodeid": 4, "leaf": -0.0461680405}]}, {"nodeid": 2, "depth": 1, "split": "f3", "split_condition": 81.5999985, "yes": 5, "no": 6, "missing": 6, "children": [{"nodeid": 5, "leaf": -0.00739822397}, {"nodeid": 6, "depth": 2, "split": "f0", "split_condition": 3900, "yes": 9, "no": 10, "missing": 10, "children": [{"nodeid": 9, "leaf": 0.0297349542}, {"nodeid": 10, "leaf": -0.000642013561}]}]}]}, {"nodeid": 0, "depth": 0, "split": "f1", "split_condition": 4800, "yes": 1, "no": 2, "missing": 2, "children": [{"nodeid": 1, "depth": 1, "split": "f1", "split_condition": 4500, "yes": 3, "no": 4, "missing": 4, "children": [{"nodeid": 3, "depth": 2, "split": "f0", "split_condition": 449.230011, "yes": 5, "no": 6, "missing": 6, "children": [{"nodeid": 5, "leaf": -0.00203410559}, {"nodeid": 6, "leaf": 0.0120716728}]}, {"nodeid": 4, "leaf": 0.0339271538}]}, {"nodeid": 2, "leaf": -0.0503768921}]}, {"nodeid": 0, "depth": 0, "split": "f1", "split_condition": 4800, "yes": 1, "no": 2, "missing": 2, "children": [{"nodeid": 1, "depth": 1, "split": "f1", "split_condition": 4500, "yes": 3, "no": 4, "missing": 4, "children": [{"nodeid": 3, "depth": 2, "split": "f3", "split_condition": 81.5999985, "yes": 5, "no": 6, "missing": 6, "children": [{"nodeid": 5, "leaf": -0.0076320651}, {"nodeid": 6, "leaf": 0.0102853142}]}, {"nodeid": 4, "leaf": 0.0316652916}]}, {"nodeid": 2, "leaf": -0.0478580482}]}, {"nodeid": 0, "depth": 0, "split": "f0", "split_condition": 449.230011, "yes": 1, "no": 2, "missing": 2, "children": [{"nodeid": 1, "depth": 1, "split": "f0", "split_condition": 67.5, "yes": 3, "no": 4, "missing": 4, "children": [{"nodeid": 3, "depth": 2, "split": "f0", "split_condition": 65, "yes": 7, "no": 8, "missing": 8, "children": [{"nodeid": 7, "leaf": -0.030977821}, {"nodeid": 8, "leaf": 0.00827865582}]}, {"nodeid": 4, "leaf": -0.0406620018}]}, {"nodeid": 2, "depth": 1, "split": "f0", "split_condition": 3900, "yes": 5, "no": 6, "missing": 6, "children": [{"nodeid": 5, "depth": 2, "split": "f1", "split_condition": 72.5, "yes": 9, "no": 10, "missing": 10, "children": [{"nodeid": 9, "leaf": -0.00156364439}, {"nodeid": 10, "leaf": 0.0316602699}]}, {"nodeid": 6, "leaf": -0.00172786717}]}]}, {"nodeid": 0, "depth": 0, "split": "f1", "split_condition": 4800, "yes": 1, "no": 2, "missing": 2, "children": [{"nodeid": 1, "depth": 1, "split": "f0", "split_condition": 67.5, "yes": 3, "no": 4, "missing": 4, "children": [{"nodeid": 3, "depth": 2, "split": "f0", "split_condition": 66.5999985, "yes": 5, "no": 6, "missing": 6, "children": [{"nodeid": 5, "leaf": 0.00882253703}, {"nodeid": 6, "leaf": 0.0210577659}]}, {"nodeid": 4, "depth": 2, "split": "f0", "split_condition": 449.230011, "yes": 7, "no": 8, "missing": 8, "children": [{"nodeid": 7, "leaf": -0.0211952217}, {"nodeid": 8, "leaf": 0.0114312749}]}]}, {"nodeid": 2, "leaf": -0.0434320457}]}, {"nodeid": 0, "depth": 0, "split": "f1", "split_condition": 4800, "yes": 1, "no": 2, "missing": 2, "children": [{"nodeid": 1, "depth": 1, "split": "f1", "split_condition": 4500, "yes": 3, "no": 4, "missing": 4, "children": [{"nodeid": 3, "depth": 2, "split": "f3", "split_condition": 2364.7749, "yes": 5, "no": 6, "missing": 6, "children": [{"nodeid": 5, "leaf": 0.0133780167}, {"nodeid": 6, "leaf": -0.00831231009}]}, {"nodeid": 4, "leaf": 0.027139917}]}, {"nodeid": 2, "leaf": -0.0412605293}]}, {"nodeid": 0, "depth": 0, "split": "f1", "split_condition": 4800, "yes": 1, "no": 2, "missing": 2, "children": [{"nodeid": 1, "depth": 1, "split": "f1", "split_condition": 4500, "yes": 3, "no": 4, "missing": 4, "children": [{"nodeid": 3, "depth": 2, "split": "f1", "split_condition": 2013.55713, "yes": 5, "no": 6, "missing": 6, "children": [{"nodeid": 5, "leaf": 0.0106301112}, {"nodeid": 6, "leaf": -0.0077837198}]}, {"nodeid": 4, "leaf": 0.0253304821}]}, {"nodeid": 2, "leaf": -0.0391975418}]}, {"nodeid": 0, "depth": 0, "split": "f1", "split_condition": 4800, "yes": 1, "no": 2, "missing": 2, "children": [{"nodeid": 1, "depth": 1, "split": "f0", "split_condition": 65, "yes": 3, "no": 4, "missing": 4, "children": [{"nodeid": 3, "depth": 2, "split": "f1", "split_condition": 77.5, "yes": 5, "no": 6, "missing": 6, "children": [{"nodeid": 5, "leaf": 0.0106987003}, {"nodeid": 6, "leaf": -0.029065324}]}, {"nodeid": 4, "depth": 2, "split": "f3", "split_condition": 81.5999985, "yes": 7, "no": 8, "missing": 8, "children": [{"nodeid": 7, "leaf": -0.00968494453}, {"nodeid": 8, "leaf": 0.00896551367}]}]}, {"nodeid": 2, "leaf": -0.0372377411}]}, {"nodeid": 0, "depth": 0, "split": "f0", "split_condition": 449.230011, "yes": 1, "no": 2, "missing": 2, "children": [{"nodeid": 1, "depth": 1, "split": "f0", "split_condition": 67.5, "yes": 3, "no": 4, "missing": 4, "children": [{"nodeid": 3, "depth": 2, "split": "f0", "split_condition": 65, "yes": 7, "no": 8, "missing": 8, "children": [{"nodeid": 7, "leaf": -0.0276121143}, {"nodeid": 8, "leaf": 0.00676460285}]}, {"nodeid": 4, "leaf": -0.0369040184}]}, {"nodeid": 2, "depth": 1, "split": "f3", "split_condition": 81.5999985, "yes": 5, "no": 6, "missing": 6, "children": [{"nodeid": 5, "leaf": -0.00920066889}, {"nodeid": 6, "depth": 2, "split": "f1", "split_condition": 72.5, "yes": 9, "no": 10, "missing": 10, "children": [{"nodeid": 9, "leaf": -0.00262126932}, {"nodeid": 10, "leaf": 0.0202542879}]}]}]}, {"nodeid": 0, "depth": 0, "split": "f0", "split_condition": 449.230011, "yes": 1, "no": 2, "missing": 2, "children": [{"nodeid": 1, "depth": 1, "split": "f1", "split_condition": 2013.55713, "yes": 3, "no": 4, "missing": 4, "children": [{"nodeid": 3, "leaf": 0.0069711688}, {"nodeid": 4, "depth": 2, "split": "f0", "split_condition": 66.5999985, "yes": 7, "no": 8, "missing": 8, "children": [{"nodeid": 7, "leaf": -0.0103440285}, {"nodeid": 8, "leaf": -0.0294003487}]}]}, {"nodeid": 2, "depth": 1, "split": "f3", "split_condition": 81.5999985, "yes": 5, "no": 6, "missing": 6, "children": [{"nodeid": 5, "leaf": -0.00874061603}, {"nodeid": 6, "depth": 2, "split": "f1", "split_condition": 73.3000031, "yes": 9, "no": 10, "missing": 10, "children": [{"nodeid": 9, "leaf": 0.00280965189}, {"nodeid": 10, "leaf": 0.0284994747}]}]}]}, {"nodeid": 0, "depth": 0, "split": "f1", "split_condition": 4800, "yes": 1, "no": 2, "missing": 2, "children": [{"nodeid": 1, "depth": 1, "split": "f3", "split_condition": 2364.7749, "yes": 3, "no": 4, "missing": 4, "children": [{"nodeid": 3, "leaf": 0.0263063442}, {"nodeid": 4, "depth": 2, "split": "f1", "split_condition": 4500, "yes": 5, "no": 6, "missing": 6, "children": [{"nodeid": 5, "leaf": -0.00109274127}, {"nodeid": 6, "leaf": 0.0221735649}]}]}, {"nodeid": 2, "leaf": -0.0320606232}]}, {"nodeid": 0, "depth": 0, "split": "f1", "split_condition": 4800, "yes": 1, "no": 2, "missing": 2, "children": [{"nodeid": 1, "depth": 1, "split": "f0", "split_condition": 65, "yes": 3, "no": 4, "missing": 4, "children": [{"nodeid": 3, "leaf": -0.025659753}, {"nodeid": 4, "depth": 2, "split": "f1", "split_condition": 4500, "yes": 5, "no": 6, "missing": 6, "children": [{"nodeid": 5, "leaf": 0.00238571176}, {"nodeid": 6, "leaf": 0.0206952412}]}]}, {"nodeid": 2, "leaf": -0.0304574966}]}, {"nodeid": 0, "depth": 0, "split": "f1", "split_condition": 4800, "yes": 1, "no": 2, "missing": 2, "children": [{"nodeid": 1, "depth": 1, "split": "f1", "split_condition": 4500, "yes": 3, "no": 4, "missing": 4, "children": [{"nodeid": 3, "depth": 2, "split": "f1", "split_condition": 2013.55713, "yes": 5, "no": 6, "missing": 6, "children": [{"nodeid": 5, "leaf": 0.0065580369}, {"nodeid": 6, "leaf": -0.0136211393}]}, {"nodeid": 4, "leaf": 0.0114494329}]}, {"nodeid": 2, "leaf": -0.0289346706}]}, {"nodeid": 0, "depth": 0, "split": "f1", "split_condition": 4800, "yes": 1, "no": 2, "missing": 2, "children": [{"nodeid": 1, "depth": 1, "split": "f0", "split_condition": 67.5, "yes": 3, "no": 4, "missing": 4, "children": [{"nodeid": 3, "leaf": 0.0143994018}, {"nodeid": 4, "depth": 2, "split": "f0", "split_condition": 449.230011, "yes": 5, "no": 6, "missing": 6, "children": [{"nodeid": 5, "leaf": -0.0140647888}, {"nodeid": 6, "leaf": 0.00759582547}]}]}, {"nodeid": 2, "leaf": -0.0274879467}]}, {"nodeid": 0, "depth": 0, "split": "f1", "split_condition": 4800, "yes": 1, "no": 2, "missing": 2, "children": [{"nodeid": 1, "depth": 1, "split": "f0", "split_condition": 65, "yes": 3, "no": 4, "missing": 4, "children": [{"nodeid": 3, "depth": 2, "split": "f1", "split_condition": 77.5, "yes": 5, "no": 6, "missing": 6, "children": [{"nodeid": 5, "leaf": 0.0114854816}, {"nodeid": 6, "leaf": -0.024415588}]}, {"nodeid": 4, "depth": 2, "split": "f0", "split_condition": 66.5999985, "yes": 7, "no": 8, "missing": 8, "children": [{"nodeid": 7, "leaf": 0.0396854393}, {"nodeid": 8, "leaf": 0.011421755}]}]}, {"nodeid": 2, "leaf": -0.0261135101}]}, {"nodeid": 0, "depth": 0, "split": "f1", "split_condition": 4800, "yes": 1, "no": 2, "missing": 2, "children": [{"nodeid": 1, "depth": 1, "split": "f0", "split_condition": 65, "yes": 3, "no": 4, "missing": 4, "children": [{"nodeid": 3, "depth": 2, "split": "f1", "split_condition": 77.5, "yes": 5, "no": 6, "missing": 6, "children": [{"nodeid": 5, "leaf": 0.0109111788}, {"nodeid": 6, "leaf": -0.0231948849}]}, {"nodeid": 4, "depth": 2, "split": "f0", "split_condition": 67.5, "yes": 7, "no": 8, "missing": 8, "children": [{"nodeid": 7, "leaf": 0.029150391}, {"nodeid": 8, "leaf": 0.00123357773}]}]}, {"nodeid": 2, "leaf": -0.02480793}]}, {"nodeid": 0, "depth": 0, "split": "f0", "split_condition": 449.230011, "yes": 1, "no": 2, "missing": 2, "children": [{"nodeid": 1, "depth": 1, "split": "f1", "split_condition": 2013.55713, "yes": 3, "no": 4, "missing": 4, "children": [{"nodeid": 3, "leaf": 0.00923143979}, {"nodeid": 4, "leaf": -0.0191632956}]}, {"nodeid": 2, "depth": 1, "split": "f3", "split_condition": 2364.7749, "yes": 5, "no": 6, "missing": 6, "children": [{"nodeid": 5, "leaf": 0.0245405193}, {"nodeid": 6, "depth": 2, "split": "f1", "split_condition": 4500, "yes": 7, "no": 8, "missing": 8, "children": [{"nodeid": 7, "leaf": -0.00178346632}, {"nodeid": 8, "leaf": 0.00986461621}]}]}]}, {"nodeid": 0, "depth": 0, "split": "f3", "split_condition": 2364.7749, "yes": 1, "no": 2, "missing": 2, "children": [{"nodeid": 1, "leaf": 0.0233135223}, {"nodeid": 2, "depth": 1, "split": "f2", "split_condition": 5100, "yes": 3, "no": 4, "missing": 4, "children": [{"nodeid": 3, "depth": 2, "split": "f0", "split_condition": 449.230011, "yes": 5, "no": 6, "missing": 6, "children": [{"nodeid": 5, "leaf": -0.0155092506}, {"nodeid": 6, "leaf": 0.00242889416}]}, {"nodeid": 4, "leaf": 0.0151611334}]}]}, {"nodeid": 0, "depth": 0, "split": "f1", "split_condition": 4800, "yes": 1, "no": 2, "missing": 2, "children": [{"nodeid": 1, "depth": 1, "split": "f3", "split_condition": 2364.7749, "yes": 3, "no": 4, "missing": 4, "children": [{"nodeid": 3, "leaf": 0.0221479423}, {"nodeid": 4, "depth": 2, "split": "f1", "split_condition": 4500, "yes": 5, "no": 6, "missing": 6, "children": [{"nodeid": 5, "leaf": -0.0019558717}, {"nodeid": 6, "leaf": 0.0157686882}]}]}, {"nodeid": 2, "leaf": -0.0218338016}]}, {"nodeid": 0, "depth": 0, "split": "f1", "split_condition": 4800, "yes": 1, "no": 2, "missing": 2, "children": [{"nodeid": 1, "depth": 1, "split": "f1", "split_condition": 4500, "yes": 3, "no": 4, "missing": 4, "children": [{"nodeid": 3, "depth": 2, "split": "f1", "split_condition": 2013.55713, "yes": 5, "no": 6, "missing": 6, "children": [{"nodeid": 5, "leaf": 0.00637016306}, {"nodeid": 6, "leaf": -0.00699992711}]}, {"nodeid": 4, "leaf": 0.0147173572}]}, {"nodeid": 2, "leaf": -0.0207420345}]}, {"nodeid": 0, "depth": 0, "split": "f1", "split_condition": 2013.55713, "yes": 1, "no": 2, "missing": 2, "children": [{"nodeid": 1, "leaf": 0.00357475295}, {"nodeid": 2, "depth": 1, "split": "f0", "split_condition": 66.5999985, "yes": 3, "no": 4, "missing": 4, "children": [{"nodeid": 3, "depth": 2, "split": "f0", "split_condition": 65, "yes": 5, "no": 6, "missing": 6, "children": [{"nodeid": 5, "leaf": -0.0198535919}, {"nodeid": 6, "leaf": 0.00256703701}]}, {"nodeid": 4, "depth": 2, "split": "f0", "split_condition": 3900, "yes": 7, "no": 8, "missing": 8, "children": [{"nodeid": 7, "leaf": -0.0198069774}, {"nodeid": 8, "leaf": -0.00427474966}]}]}]}, {"nodeid": 0, "depth": 0, "split": "f1", "split_condition": 4800, "yes": 1, "no": 2, "missing": 2, "children": [{"nodeid": 1, "depth": 1, "split": "f3", "split_condition": 81.5999985, "yes": 3, "no": 4, "missing": 4, "children": [{"nodeid": 3, "leaf": -0.0122293476}, {"nodeid": 4, "depth": 2, "split": "f3", "split_condition": 2364.7749, "yes": 5, "no": 6, "missing": 6, "children": [{"nodeid": 5, "leaf": 0.0223808289}, {"nodeid": 6, "leaf": 0.003704109}]}]}, {"nodeid": 2, "leaf": -0.0187147148}]}, {"nodeid": 0, "depth": 0, "split": "f1", "split_condition": 4800, "yes": 1, "no": 2, "missing": 2, "children": [{"nodeid": 1, "depth": 1, "split": "f3", "split_condition": 81.5999985, "yes": 3, "no": 4, "missing": 4, "children": [{"nodeid": 3, "leaf": -0.0116178514}, {"nodeid": 4, "depth": 2, "split": "f1", "split_condition": 72.5, "yes": 5, "no": 6, "missing": 6, "children": [{"nodeid": 5, "leaf": -0.00465259561}, {"nodeid": 6, "leaf": 0.0120603563}]}]}, {"nodeid": 2, "leaf": -0.0177789684}]}, {"nodeid": 0, "depth": 0, "split": "f1", "split_condition": 4800, "yes": 1, "no": 2, "missing": 2, "children": [{"nodeid": 1, "depth": 1, "split": "f1", "split_condition": 4500, "yes": 3, "no": 4, "missing": 4, "children": [{"nodeid": 3, "depth": 2, "split": "f3", "split_condition": 2364.7749, "yes": 5, "no": 6, "missing": 6, "children": [{"nodeid": 5, "leaf": 0.00641454104}, {"nodeid": 6, "leaf": -0.00375417061}]}, {"nodeid": 4, "leaf": 0.0140055344}]}, {"nodeid": 2, "leaf": -0.016889954}]}, {"nodeid": 0, "depth": 0, "split": "f0", "split_condition": 67.5, "yes": 1, "no": 2, "missing": 2, "children": [{"nodeid": 1, "depth": 1, "split": "f0", "split_condition": 65, "yes": 3, "no": 4, "missing": 4, "children": [{"nodeid": 3, "depth": 2, "split": "f1", "split_condition": 77.5, "yes": 7, "no": 8, "missing": 8, "children": [{"nodeid": 7, "leaf": 0.00967960339}, {"nodeid": 8, "leaf": -0.0194616318}]}, {"nodeid": 4, "depth": 2, "split": "f1", "split_condition": 2013.55713, "yes": 9, "no": 10, "missing": 10, "children": [{"nodeid": 9, "leaf": 0.00279541011}, {"nodeid": 10, "leaf": 0.0333845764}]}]}, {"nodeid": 2, "depth": 1, "split": "f0", "split_condition": 449.230011, "yes": 5, "no": 6, "missing": 6, "children": [{"nodeid": 5, "leaf": -0.0196347553}, {"nodeid": 6, "depth": 2, "split": "f3", "split_condition": 81.5999985, "yes": 11, "no": 12, "missing": 12, "children": [{"nodeid": 11, "leaf": -0.0113576893}, {"nodeid": 12, "leaf": 0.00622840924}]}]}]}, {"nodeid": 0, "depth": 0, "split": "f1", "split_condition": 2013.55713, "yes": 1, "no": 2, "missing": 2, "children": [{"nodeid": 1, "depth": 1, "split": "f1", "split_condition": 72.5, "yes": 3, "no": 4, "missing": 4, "children": [{"nodeid": 3, "leaf": -0.00454368582}, {"nodeid": 4, "leaf": 0.00783338584}]}, {"nodeid": 2, "depth": 1, "split": "f2", "split_condition": 5100, "yes": 5, "no": 6, "missing": 6, "children": [{"nodeid": 5, "depth": 2, "split": "f0", "split_condition": 449.230011, "yes": 7, "no": 8, "missing": 8, "children": [{"nodeid": 7, "leaf": -0.0156410858}, {"nodeid": 8, "leaf": -0.00258267741}]}, {"nodeid": 6, "leaf": 0.010711289}]}]}, {"nodeid": 0, "depth": 0, "split": "f1", "split_condition": 4800, "yes": 1, "no": 2, "missing": 2, "children": [{"nodeid": 1, "depth": 1, "split": "f3", "split_condition": 81.5999985, "yes": 3, "no": 4, "missing": 4, "children": [{"nodeid": 3, "leaf": -0.0106607443}, {"nodeid": 4, "depth": 2, "split": "f3", "split_condition": 2364.7749, "yes": 5, "no": 6, "missing": 6, "children": [{"nodeid": 5, "leaf": 0.0201555248}, {"nodeid": 6, "leaf": 0.000128832733}]}]}, {"nodeid": 2, "leaf": -0.0142816547}]}, {"nodeid": 0, "depth": 0, "split": "f0", "split_condition": 65, "yes": 1, "no": 2, "missing": 2, "children": [{"nodeid": 1, "leaf": -0.0177129749}, {"nodeid": 2, "depth": 1, "split": "f0", "split_condition": 66.5999985, "yes": 3, "no": 4, "missing": 4, "children": [{"nodeid": 3, "leaf": 0.0368024819}, {"nodeid": 4, "depth": 2, "split": "f1", "split_condition": 4800, "yes": 5, "no": 6, "missing": 6, "children": [{"nodeid": 5, "leaf": 0.00441596983}, {"nodeid": 6, "leaf": -0.0135675436}]}]}]}, {"nodeid": 0, "depth": 0, "split": "f3", "split_condition": 4500, "yes": 1, "no": 2, "missing": 2, "children": [{"nodeid": 1, "depth": 1, "split": "f2", "split_condition": 5100, "yes": 3, "no": 4, "missing": 4, "children": [{"nodeid": 3, "depth": 2, "split": "f3", "split_condition": 2364.7749, "yes": 7, "no": 8, "missing": 8, "children": [{"nodeid": 7, "leaf": 0.00571886729}, {"nodeid": 8, "leaf": -0.013569355}]}, {"nodeid": 4, "leaf": 0.00994834956}]}, {"nodeid": 2, "depth": 1, "split": "f0", "split_condition": 65, "yes": 5, "no": 6, "missing": 6, "children": [{"nodeid": 5, "leaf": 0.0096832281}, {"nodeid": 6, "leaf": 0.00203666696}]}]}, {"nodeid": 0, "depth": 0, "split": "f1", "split_condition": 4800, "yes": 1, "no": 2, "missing": 2, "children": [{"nodeid": 1, "depth": 1, "split": "f3", "split_condition": 81.5999985, "yes": 3, "no": 4, "missing": 4, "children": [{"nodeid": 3, "leaf": -0.0106344223}, {"nodeid": 4, "depth": 2, "split": "f3", "split_condition": 2364.7749, "yes": 5, "no": 6, "missing": 6, "children": [{"nodeid": 5, "leaf": 0.0186409}, {"nodeid": 6, "leaf": 0.000267257681}]}]}, {"nodeid": 2, "leaf": -0.012210655}]}, {"nodeid": 0, "depth": 0, "split": "f3", "split_condition": 2364.7749, "yes": 1, "no": 2, "missing": 2, "children": [{"nodeid": 1, "leaf": 0.0177087784}, {"nodeid": 2, "depth": 1, "split": "f1", "split_condition": 77.5, "yes": 3, "no": 4, "missing": 4, "children": [{"nodeid": 3, "depth": 2, "split": "f1", "split_condition": 72.5, "yes": 5, "no": 6, "missing": 6, "children": [{"nodeid": 5, "leaf": -0.00387878413}, {"nodeid": 6, "leaf": 0.00869827252}]}, {"nodeid": 4, "leaf": -0.0113310814}]}]}, {"nodeid": 0, "depth": 0, "split": "f1", "split_condition": 4800, "yes": 1, "no": 2, "missing": 2, "children": [{"nodeid": 1, "depth": 1, "split": "f3", "split_condition": 81.5999985, "yes": 3, "no": 4, "missing": 4, "children": [{"nodeid": 3, "leaf": -0.0109880446}, {"nodeid": 4, "depth": 2, "split": "f3", "split_condition": 2364.7749, "yes": 5, "no": 6, "missing": 6, "children": [{"nodeid": 5, "leaf": 0.0168233868}, {"nodeid": 6, "leaf": 0.000781908922}]}]}, {"nodeid": 2, "leaf": -0.0110336309}]}, {"nodeid": 0, "depth": 0, "split": "f0", "split_condition": 449.230011, "yes": 1, "no": 2, "missing": 2, "children": [{"nodeid": 1, "depth": 1, "split": "f1", "split_condition": 77.5, "yes": 3, "no": 4, "missing": 4, "children": [{"nodeid": 3, "leaf": 0.00871181488}, {"nodeid": 4, "leaf": -0.0124951042}]}, {"nodeid": 2, "depth": 1, "split": "f3", "split_condition": 81.5999985, "yes": 5, "no": 6, "missing": 6, "children": [{"nodeid": 5, "leaf": -0.0104387281}, {"nodeid": 6, "depth": 2, "split": "f3", "split_condition": 2364.7749, "yes": 7, "no": 8, "missing": 8, "children": [{"nodeid": 7, "leaf": 0.015982246}, {"nodeid": 8, "leaf": 0.00151802064}]}]}]}, {"nodeid": 0, "depth": 0, "split": "f2", "split_condition": 5100, "yes": 1, "no": 2, "missing": 2, "children": [{"nodeid": 1, "depth": 1, "split": "f3", "split_condition": 4500, "yes": 3, "no": 4, "missing": 4, "children": [{"nodeid": 3, "depth": 2, "split": "f0", "split_condition": 449.230011, "yes": 5, "no": 6, "missing": 6, "children": [{"nodeid": 5, "leaf": -0.00954687968}, {"nodeid": 6, "leaf": 0.00139656069}]}, {"nodeid": 4, "leaf": 0.00756657962}]}, {"nodeid": 2, "leaf": 0.0105897905}]}, {"nodeid": 0, "depth": 0, "split": "f0", "split_condition": 65, "yes": 1, "no": 2, "missing": 2, "children": [{"nodeid": 1, "leaf": -0.014532662}, {"nodeid": 2, "depth": 1, "split": "f0", "split_condition": 66.5999985, "yes": 3, "no": 4, "missing": 4, "children": [{"nodeid": 3, "leaf": 0.0372570045}, {"nodeid": 4, "depth": 2, "split": "f3", "split_condition": 81.5999985, "yes": 5, "no": 6, "missing": 6, "children": [{"nodeid": 5, "leaf": -0.00998668652}, {"nodeid": 6, "leaf": 0.00476536248}]}]}]}, {"nodeid": 0, "depth": 0, "split": "f2", "split_condition": 5100, "yes": 1, "no": 2, "missing": 2, "children": [{"nodeid": 1, "depth": 1, "split": "f0", "split_condition": 449.230011, "yes": 3, "no": 4, "missing": 4, "children": [{"nodeid": 3, "depth": 2, "split": "f0", "split_condition": 67.5, "yes": 5, "no": 6, "missing": 6, "children": [{"nodeid": 5, "leaf": 0.000122642523}, {"nodeid": 6, "leaf": -0.00912284851}]}, {"nodeid": 4, "depth": 2, "split": "f3", "split_condition": 81.5999985, "yes": 7, "no": 8, "missing": 8, "children": [{"nodeid": 7, "leaf": -0.00948734302}, {"nodeid": 8, "leaf": 0.00571142836}]}]}, {"nodeid": 2, "leaf": 0.00982208271}]}, {"nodeid": 0, "depth": 0, "split": "f1", "split_condition": 2013.55713, "yes": 1, "no": 2, "missing": 2, "children": [{"nodeid": 1, "leaf": 0.00689373026}, {"nodeid": 2, "depth": 1, "split": "f2", "split_condition": 5100, "yes": 3, "no": 4, "missing": 4, "children": [{"nodeid": 3, "depth": 2, "split": "f0", "split_condition": 449.230011, "yes": 5, "no": 6, "missing": 6, "children": [{"nodeid": 5, "leaf": -0.00940388348}, {"nodeid": 6, "leaf": 0.00334754959}]}, {"nodeid": 4, "leaf": 0.00933094043}]}]}, {"nodeid": 0, "depth": 0, "split": "f3", "split_condition": 4500, "yes": 1, "no": 2, "missing": 2, "children": [{"nodeid": 1, "depth": 1, "split": "f2", "split_condition": 5100, "yes": 3, "no": 4, "missing": 4, "children": [{"nodeid": 3, "depth": 2, "split": "f0", "split_condition": 449.230011, "yes": 7, "no": 8, "missing": 8, "children": [{"nodeid": 7, "leaf": -0.0107350033}, {"nodeid": 8, "leaf": -0.00302918768}]}, {"nodeid": 4, "leaf": 0.00886440277}]}, {"nodeid": 2, "depth": 1, "split": "f0", "split_condition": 65, "yes": 5, "no": 6, "missing": 6, "children": [{"nodeid": 5, "leaf": 0.00827369746}, {"nodeid": 6, "leaf": 0.00210628519}]}]}, {"nodeid": 0, "depth": 0, "split": "f1", "split_condition": 77.5, "yes": 1, "no": 2, "missing": 2, "children": [{"nodeid": 1, "leaf": 0.00692329416}, {"nodeid": 2, "depth": 1, "split": "f2", "split_condition": 5100, "yes": 3, "no": 4, "missing": 4, "children": [{"nodeid": 3, "depth": 2, "split": "f3", "split_condition": 2364.7749, "yes": 5, "no": 6, "missing": 6, "children": [{"nodeid": 5, "leaf": 0.00369631476}, {"nodeid": 6, "leaf": -0.00973875914}]}, {"nodeid": 4, "leaf": 0.00842113513}]}]}, {"nodeid": 0, "depth": 0, "split": "f1", "split_condition": 4800, "yes": 1, "no": 2, "missing": 2, "children": [{"nodeid": 1, "depth": 1, "split": "f1", "split_condition": 4500, "yes": 3, "no": 4, "missing": 4, "children": [{"nodeid": 3, "depth": 2, "split": "f1", "split_condition": 73.3000031, "yes": 5, "no": 6, "missing": 6, "children": [{"nodeid": 5, "leaf": 0.00217876444}, {"nodeid": 6, "leaf": -0.00268052425}]}, {"nodeid": 4, "leaf": 0.0105410255}]}, {"nodeid": 2, "leaf": -0.0076681138}]}, {"nodeid": 0, "depth": 0, "split": "f3", "split_condition": 4500, "yes": 1, "no": 2, "missing": 2, "children": [{"nodeid": 1, "depth": 1, "split": "f2", "split_condition": 5100, "yes": 3, "no": 4, "missing": 4, "children": [{"nodeid": 3, "depth": 2, "split": "f3", "split_condition": 2364.7749, "yes": 5, "no": 6, "missing": 6, "children": [{"nodeid": 5, "leaf": 0.00362866721}, {"nodeid": 6, "leaf": -0.00708482554}]}, {"nodeid": 4, "leaf": 0.00747299194}]}, {"nodeid": 2, "leaf": 0.00684661884}]}, {"nodeid": 0, "depth": 0, "split": "f3", "split_condition": 4500, "yes": 1, "no": 2, "missing": 2, "children": [{"nodeid": 1, "depth": 1, "split": "f2", "split_condition": 5100, "yes": 3, "no": 4, "missing": 4, "children": [{"nodeid": 3, "depth": 2, "split": "f3", "split_condition": 2364.7749, "yes": 5, "no": 6, "missing": 6, "children": [{"nodeid": 5, "leaf": 0.00338681531}, {"nodeid": 6, "leaf": -0.00830955524}]}, {"nodeid": 4, "leaf": 0.00709934253}]}, {"nodeid": 2, "leaf": 0.00639012689}]}, {"nodeid": 0, "depth": 0, "split": "f0", "split_condition": 66.5999985, "yes": 1, "no": 2, "missing": 2, "children": [{"nodeid": 1, "depth": 1, "split": "f0", "split_condition": 65, "yes": 3, "no": 4, "missing": 4, "children": [{"nodeid": 3, "leaf": 0.00698604574}, {"nodeid": 4, "leaf": 0.0377855301}]}, {"nodeid": 2, "depth": 1, "split": "f3", "split_condition": 81.5999985, "yes": 5, "no": 6, "missing": 6, "children": [{"nodeid": 5, "leaf": -0.0094305044}, {"nodeid": 6, "depth": 2, "split": "f1", "split_condition": 4800, "yes": 7, "no": 8, "missing": 8, "children": [{"nodeid": 7, "leaf": 0.00674760668}, {"nodeid": 8, "leaf": -0.00651512155}]}]}]}, {"nodeid": 0, "depth": 0, "split": "f3", "split_condition": 4500, "yes": 1, "no": 2, "missing": 2, "children": [{"nodeid": 1, "depth": 1, "split": "f0", "split_condition": 65, "yes": 3, "no": 4, "missing": 4, "children": [{"nodeid": 3, "leaf": -0.0117637636}, {"nodeid": 4, "depth": 2, "split": "f3", "split_condition": 81.5999985, "yes": 7, "no": 8, "missing": 8, "children": [{"nodeid": 7, "leaf": -0.00895900745}, {"nodeid": 8, "leaf": 0.000660185411}]}]}, {"nodeid": 2, "depth": 1, "split": "f0", "split_condition": 65, "yes": 5, "no": 6, "missing": 6, "children": [{"nodeid": 5, "leaf": 0.00663681049}, {"nodeid": 6, "leaf": 0.00162277219}]}]}, {"nodeid": 0, "depth": 0, "split": "f3", "split_condition": 81.5999985, "yes": 1, "no": 2, "missing": 2, "children": [{"nodeid": 1, "leaf": -0.00851097144}, {"nodeid": 2, "depth": 1, "split": "f3", "split_condition": 2364.7749, "yes": 3, "no": 4, "missing": 4, "children": [{"nodeid": 3, "leaf": 0.0138015747}, {"nodeid": 4, "depth": 2, "split": "f3", "split_condition": 4500, "yes": 5, "no": 6, "missing": 6, "children": [{"nodeid": 5, "leaf": -0.00286907214}, {"nodeid": 6, "leaf": 0.00523109455}]}]}]}, {"nodeid": 0, "depth": 0, "split": "f0", "split_condition": 67.5, "yes": 1, "no": 2, "missing": 2, "children": [{"nodeid": 1, "depth": 1, "split": "f0", "split_condition": 65, "yes": 3, "no": 4, "missing": 4, "children": [{"nodeid": 3, "depth": 2, "split": "f1", "split_condition": 77.5, "yes": 7, "no": 8, "missing": 8, "children": [{"nodeid": 7, "leaf": 0.00604343414}, {"nodeid": 8, "leaf": -0.0110321045}]}, {"nodeid": 4, "depth": 2, "split": "f0", "split_condition": 66.5999985, "yes": 9, "no": 10, "missing": 10, "children": [{"nodeid": 9, "leaf": 0.0360067375}, {"nodeid": 10, "leaf": 0.00651741028}]}]}, {"nodeid": 2, "depth": 1, "split": "f3", "split_condition": 81.5999985, "yes": 5, "no": 6, "missing": 6, "children": [{"nodeid": 5, "leaf": -0.00808544178}, {"nodeid": 6, "depth": 2, "split": "f3", "split_condition": 2364.7749, "yes": 11, "no": 12, "missing": 12, "children": [{"nodeid": 11, "leaf": 0.0131114963}, {"nodeid": 12, "leaf": -0.0024605561}]}]}]}, {"nodeid": 0, "depth": 0, "split": "f3", "split_condition": 81.5999985, "yes": 1, "no": 2, "missing": 2, "children": [{"nodeid": 1, "leaf": -0.00768108387}, {"nodeid": 2, "depth": 1, "split": "f3", "split_condition": 2364.7749, "yes": 3, "no": 4, "missing": 4, "children": [{"nodeid": 3, "leaf": 0.0124559402}, {"nodeid": 4, "depth": 2, "split": "f1", "split_condition": 4800, "yes": 5, "no": 6, "missing": 6, "children": [{"nodeid": 5, "leaf": 0.00286273961}, {"nodeid": 6, "leaf": -0.00595588703}]}]}]}, {"nodeid": 0, "depth": 0, "split": "f3", "split_condition": 81.5999985, "yes": 1, "no": 2, "missing": 2, "children": [{"nodeid": 1, "leaf": -0.00729694357}, {"nodeid": 2, "depth": 1, "split": "f3", "split_condition": 2364.7749, "yes": 3, "no": 4, "missing": 4, "children": [{"nodeid": 3, "leaf": 0.0118331909}, {"nodeid": 4, "depth": 2, "split": "f2", "split_condition": 5100, "yes": 5, "no": 6, "missing": 6, "children": [{"nodeid": 5, "leaf": -0.00250549312}, {"nodeid": 6, "leaf": 0.00604858389}]}]}]}, {"nodeid": 0, "depth": 0, "split": "f0", "split_condition": 66.5999985, "yes": 1, "no": 2, "missing": 2, "children": [{"nodeid": 1, "depth": 1, "split": "f0", "split_condition": 65, "yes": 3, "no": 4, "missing": 4, "children": [{"nodeid": 3, "leaf": 0.00572357187}, {"nodeid": 4, "leaf": 0.0341886543}]}, {"nodeid": 2, "depth": 1, "split": "f3", "split_condition": 81.5999985, "yes": 5, "no": 6, "missing": 6, "children": [{"nodeid": 5, "leaf": -0.00693206815}, {"nodeid": 6, "depth": 2, "split": "f3", "split_condition": 2364.7749, "yes": 7, "no": 8, "missing": 8, "children": [{"nodeid": 7, "leaf": 0.0112415319}, {"nodeid": 8, "leaf": -0.000676822674}]}]}]}, {"nodeid": 0, "depth": 0, "split": "f3", "split_condition": 81.5999985, "yes": 1, "no": 2, "missing": 2, "children": [{"nodeid": 1, "leaf": -0.00658550253}, {"nodeid": 2, "depth": 1, "split": "f3", "split_condition": 2364.7749, "yes": 3, "no": 4, "missing": 4, "children": [{"nodeid": 3, "leaf": 0.0106794359}, {"nodeid": 4, "depth": 2, "split": "f1", "split_condition": 4500, "yes": 5, "no": 6, "missing": 6, "children": [{"nodeid": 5, "leaf": -0.00227251067}, {"nodeid": 6, "leaf": 0.00412349729}]}]}]}, {"nodeid": 0, "depth": 0, "split": "f3", "split_condition": 4500, "yes": 1, "no": 2, "missing": 2, "children": [{"nodeid": 1, "depth": 1, "split": "f3", "split_condition": 2364.7749, "yes": 3, "no": 4, "missing": 4, "children": [{"nodeid": 3, "depth": 2, "split": "f3", "split_condition": 81.5999985, "yes": 7, "no": 8, "missing": 8, "children": [{"nodeid": 7, "leaf": -0.00625629444}, {"nodeid": 8, "leaf": 0.0101453783}]}, {"nodeid": 4, "depth": 2, "split": "f1", "split_condition": 73.3000031, "yes": 9, "no": 10, "missing": 10, "children": [{"nodeid": 9, "leaf": -0.000920740829}, {"nodeid": 10, "leaf": -0.00755171804}]}]}, {"nodeid": 2, "depth": 1, "split": "f0", "split_condition": 65, "yes": 5, "no": 6, "missing": 6, "children": [{"nodeid": 5, "leaf": 0.00555114774}, {"nodeid": 6, "leaf": 0.0010839462}]}]}, {"nodeid": 0, "depth": 0, "split": "f0", "split_condition": 67.5, "yes": 1, "no": 2, "missing": 2, "children": [{"nodeid": 1, "depth": 1, "split": "f0", "split_condition": 65, "yes": 3, "no": 4, "missing": 4, "children": [{"nodeid": 3, "depth": 2, "split": "f1", "split_condition": 77.5, "yes": 7, "no": 8, "missing": 8, "children": [{"nodeid": 7, "leaf": 0.00527362851}, {"nodeid": 8, "leaf": -0.0102930069}]}, {"nodeid": 4, "depth": 2, "split": "f0", "split_condition": 66.5999985, "yes": 9, "no": 10, "missing": 10, "children": [{"nodeid": 9, "leaf": 0.0329706185}, {"nodeid": 10, "leaf": 0.00465405779}]}]}, {"nodeid": 2, "depth": 1, "split": "f3", "split_condition": 81.5999985, "yes": 5, "no": 6, "missing": 6, "children": [{"nodeid": 5, "leaf": -0.00594348926}, {"nodeid": 6, "depth": 2, "split": "f3", "split_condition": 2364.7749, "yes": 11, "no": 12, "missing": 12, "children": [{"nodeid": 11, "leaf": 0.00963802356}, {"nodeid": 12, "leaf": -0.00179263519}]}]}]}, {"nodeid": 0, "depth": 0, "split": "f0", "split_condition": 449.230011, "yes": 1, "no": 2, "missing": 2, "children": [{"nodeid": 1, "depth": 1, "split": "f2", "split_condition": 5100, "yes": 3, "no": 4, "missing": 4, "children": [{"nodeid": 3, "depth": 2, "split": "f1", "split_condition": 2013.55713, "yes": 7, "no": 8, "missing": 8, "children": [{"nodeid": 7, "leaf": 0.00387140922}, {"nodeid": 8, "leaf": -0.00584271736}]}, {"nodeid": 4, "leaf": 0.00571861258}]}, {"nodeid": 2, "depth": 1, "split": "f1", "split_condition": 73.3000031, "yes": 5, "no": 6, "missing": 6, "children": [{"nodeid": 5, "leaf": 0.0030008317}, {"nodeid": 6, "leaf": 0.0115889227}]}]}, {"nodeid": 0, "depth": 0, "split": "f1", "split_condition": 4500, "yes": 1, "no": 2, "missing": 2, "children": [{"nodeid": 1, "depth": 1, "split": "f1", "split_condition": 2013.55713, "yes": 3, "no": 4, "missing": 4, "children": [{"nodeid": 3, "depth": 2, "split": "f1", "split_condition": 72.5, "yes": 7, "no": 8, "missing": 8, "children": [{"nodeid": 7, "leaf": -0.00426082639}, {"nodeid": 8, "leaf": 0.00413532276}]}, {"nodeid": 4, "depth": 2, "split": "f3", "split_condition": 2364.7749, "yes": 9, "no": 10, "missing": 10, "children": [{"nodeid": 9, "leaf": 0.00156720483}, {"nodeid": 10, "leaf": -0.0095642088}]}]}, {"nodeid": 2, "depth": 1, "split": "f1", "split_condition": 4800, "yes": 5, "no": 6, "missing": 6, "children": [{"nodeid": 5, "leaf": 0.00872039795}, {"nodeid": 6, "leaf": -0.004945755}]}]}, {"nodeid": 0, "depth": 0, "split": "f0", "split_condition": 66.5999985, "yes": 1, "no": 2, "missing": 2, "children": [{"nodeid": 1, "depth": 1, "split": "f1", "split_condition": 77.5, "yes": 3, "no": 4, "missing": 4, "children": [{"nodeid": 3, "leaf": 0.00460968027}, {"nodeid": 4, "leaf": -0.00891151465}]}, {"nodeid": 2, "depth": 1, "split": "f3", "split_condition": 81.5999985, "yes": 5, "no": 6, "missing": 6, "children": [{"nodeid": 5, "leaf": -0.00630416861}, {"nodeid": 6, "depth": 2, "split": "f1", "split_condition": 4800, "yes": 7, "no": 8, "missing": 8, "children": [{"nodeid": 7, "leaf": 0.00330482493}, {"nodeid": 8, "leaf": -0.00469837198}]}]}]}, {"nodeid": 0, "depth": 0, "split": "f0", "split_condition": 66.5999985, "yes": 1, "no": 2, "missing": 2, "children": [{"nodeid": 1, "leaf": -0.00824317988}, {"nodeid": 2, "depth": 1, "split": "f1", "split_condition": 4800, "yes": 3, "no": 4, "missing": 4, "children": [{"nodeid": 3, "depth": 2, "split": "f1", "split_condition": 72.5, "yes": 5, "no": 6, "missing": 6, "children": [{"nodeid": 5, "leaf": -0.00421295175}, {"nodeid": 6, "leaf": 0.00657552108}]}, {"nodeid": 4, "leaf": -0.00446338672}]}]}, {"nodeid": 0, "depth": 0, "split": "f3", "split_condition": 2364.7749, "yes": 1, "no": 2, "missing": 2, "children": [{"nodeid": 1, "leaf": 0.00800418854}, {"nodeid": 2, "depth": 1, "split": "f1", "split_condition": 4500, "yes": 3, "no": 4, "missing": 4, "children": [{"nodeid": 3, "depth": 2, "split": "f3", "split_condition": 4500, "yes": 5, "no": 6, "missing": 6, "children": [{"nodeid": 5, "leaf": -0.00483551016}, {"nodeid": 6, "leaf": 0.0031294506}]}, {"nodeid": 4, "depth": 2, "split": "f1", "split_condition": 4800, "yes": 7, "no": 8, "missing": 8, "children": [{"nodeid": 7, "leaf": 0.00748036755}, {"nodeid": 8, "leaf": -0.00424022693}]}]}]}, {"nodeid": 0, "depth": 0, "split": "f1", "split_condition": 4500, "yes": 1, "no": 2, "missing": 2, "children": [{"nodeid": 1, "depth": 1, "split": "f1", "split_condition": 2013.55713, "yes": 3, "no": 4, "missing": 4, "children": [{"nodeid": 3, "depth": 2, "split": "f1", "split_condition": 72.5, "yes": 7, "no": 8, "missing": 8, "children": [{"nodeid": 7, "leaf": -0.00376052852}, {"nodeid": 8, "leaf": 0.00338659296}]}, {"nodeid": 4, "leaf": -0.00629353523}]}, {"nodeid": 2, "depth": 1, "split": "f1", "split_condition": 4800, "yes": 5, "no": 6, "missing": 6, "children": [{"nodeid": 5, "leaf": 0.00698165921}, {"nodeid": 6, "leaf": -0.00402812986}]}]}, {"nodeid": 0, "depth": 0, "split": "f1", "split_condition": 77.5, "yes": 1, "no": 2, "missing": 2, "children": [{"nodeid": 1, "leaf": 0.00445874548}, {"nodeid": 2, "depth": 1, "split": "f1", "split_condition": 4500, "yes": 3, "no": 4, "missing": 4, "children": [{"nodeid": 3, "depth": 2, "split": "f1", "split_condition": 2013.55713, "yes": 5, "no": 6, "missing": 6, "children": [{"nodeid": 5, "leaf": -0.000423049933}, {"nodeid": 6, "leaf": -0.00578624196}]}, {"nodeid": 4, "depth": 2, "split": "f1", "split_condition": 4800, "yes": 7, "no": 8, "missing": 8, "children": [{"nodeid": 7, "leaf": 0.00651626615}, {"nodeid": 8, "leaf": -0.00382671366}]}]}]}, {"nodeid": 0, "depth": 0, "split": "f3", "split_condition": 81.5999985, "yes": 1, "no": 2, "missing": 2, "children": [{"nodeid": 1, "leaf": -0.00611381559}, {"nodeid": 2, "depth": 1, "split": "f3", "split_condition": 2364.7749, "yes": 3, "no": 4, "missing": 4, "children": [{"nodeid": 3, "leaf": 0.00820808392}, {"nodeid": 4, "depth": 2, "split": "f1", "split_condition": 4500, "yes": 5, "no": 6, "missing": 6, "children": [{"nodeid": 5, "leaf": -0.00144820218}, {"nodeid": 6, "leaf": 0.00274372101}]}]}]}, {"nodeid": 0, "depth": 0, "split": "f0", "split_condition": 66.5999985, "yes": 1, "no": 2, "missing": 2, "children": [{"nodeid": 1, "depth": 1, "split": "f0", "split_condition": 65, "yes": 3, "no": 4, "missing": 4, "children": [{"nodeid": 3, "leaf": -0.00723190326}, {"nodeid": 4, "leaf": 0.0338685997}]}, {"nodeid": 2, "depth": 1, "split": "f1", "split_condition": 4800, "yes": 5, "no": 6, "missing": 6, "children": [{"nodeid": 5, "depth": 2, "split": "f1", "split_condition": 4500, "yes": 7, "no": 8, "missing": 8, "children": [{"nodeid": 7, "leaf": -5.32786071e-05}, {"nodeid": 8, "leaf": 0.00553188333}]}, {"nodeid": 6, "leaf": -0.00377254491}]}]}, {"nodeid": 0, "depth": 0, "split": "f0", "split_condition": 66.5999985, "yes": 1, "no": 2, "missing": 2, "children": [{"nodeid": 1, "leaf": -0.00775985746}, {"nodeid": 2, "depth": 1, "split": "f3", "split_condition": 81.5999985, "yes": 3, "no": 4, "missing": 4, "children": [{"nodeid": 3, "leaf": -0.00580539694}, {"nodeid": 4, "depth": 2, "split": "f3", "split_condition": 2364.7749, "yes": 5, "no": 6, "missing": 6, "children": [{"nodeid": 5, "leaf": 0.00780029316}, {"nodeid": 6, "leaf": 0.000168952945}]}]}]}, {"nodeid": 0, "depth": 0, "split": "f0", "split_condition": 66.5999985, "yes": 1, "no": 2, "missing": 2, "children": [{"nodeid": 1, "leaf": 0.0325632095}, {"nodeid": 2, "depth": 1, "split": "f3", "split_condition": 81.5999985, "yes": 3, "no": 4, "missing": 4, "children": [{"nodeid": 3, "leaf": -0.00551509857}, {"nodeid": 4, "depth": 2, "split": "f3", "split_condition": 2364.7749, "yes": 5, "no": 6, "missing": 6, "children": [{"nodeid": 5, "leaf": 0.00741024036}, {"nodeid": 6, "leaf": -0.00103564269}]}]}]}, {"nodeid": 0, "depth": 0, "split": "f0", "split_condition": 66.5999985, "yes": 1, "no": 2, "missing": 2, 